Geohash,vec
9q5br,-0.02546516505530777 -0.13079037539951058 0.25609516447261277 -0.07215688248692084 0.07328194998716961 0.1248814511644009 -0.04098901255762258 0.47655165279813927 -0.4100218255702604 -0.03494864493590632 0.40226567939631314 0.0789742160198696 0.07326274349109742 -0.10627502635113593 0.3621661505915413 -0.35704591137035174 0.1353150854922477 0.02763248364727367 -0.18958832046797652 0.1837549144615122 0.408497265395223 0.16756703004176943 0.2858703549030101 0.21860790188712337 0.30028061933887185 0.045088981637312106 -0.12623074647369584 -0.30091711530446424 0.14723116425509442 -0.05125166297421165 -0.2949752836527802 0.32592541748177234 0.114412709146202 0.1585920920008449 -0.17143935968117538 0.12024118754480881 0.10394742352002653 0.0825039898922537 0.1029312795841554 0.35489766472794654 -0.26659589402351924 -0.5504523506395153 0.06928558230968336 -0.10474071208144894 0.22869798489478088 -0.039193518544601215 0.2131445732299018 -0.5153079127222684 0.09924694271186407 -0.136405055675224 0.1433074682038071 -0.20290019828843792 -0.10521145291334566 0.7615714963787481 -0.11531096618786715 -1.895591503867842 -0.2259119433769685 -0.13074766419624373 1.4064673947177577 0.3872930745775339 -0.46794491076952816 0.4951244806271582 -0.02623089660075985 0.05113349296289187 0.06734927199414911 0.01956226174447356 0.0725288627236442 -0.15339608527530485 0.12785838507808214 -0.013709067943478533 -0.274743704358302 -0.07538520921300343 0.004637934405379255 -0.24078482693087458 0.27371952657340903 0.03179532641013231 0.12817633968738892 0.11508389094061167 -0.41032073019591003 -0.14224740828993512 0.4185037732313309 0.030582842616412902 -0.41841830363292387 0.21303468401373057 -0.867104408529593 -0.0968073024864597 0.039242645407677 -0.10345244293444308 -0.006628304656583954 -0.05833869612332712 -0.12416794754236597 0.1267292510698962 -0.35166666801519597 0.1230757547818953 -0.524041186512849 0.15285084867321896 -0.044946591888134414 0.0024628607825385677 0.7147895839954139 -0.08644312484864189
9q5bs,0.021669660417821347 -0.17867145416548733 0.32721293838322185 0.017428758728606164 0.06542530069516735 0.08045173480990184 -0.02114675903062648 0.4428156786402023 -0.3596445236422399 0.027465339472616753 0.43186481819697353 0.0568813223094148 0.028668427533893624 -0.0791636028435007 0.3724727412281684 -0.36656322090404425 0.0825909724871896 0.022710787608111755 -0.19640338278834144 0.14720070567091184 0.44388465667044247 0.08753877358736083 0.2845897746117139 0.16025653787046137 0.3584772007024376 -0.01620528107493774 -0.05976089047373505 -0.214309120046527 0.14504510119458874 -0.04349173242252135 -0.27184330847457155 0.30035386645188755 0.026782760410991185 0.1726504168831747 -0.1814948208436721 0.1554379275005882 0.14838690507929875 0.0401239379563545 0.0565226255058997 0.3747786282268336 -0.2597317495713259 -0.46958518624305334 0.018527967644699078 -0.09273709661590525 0.21014580428743992 -0.028829102818866702 0.20838871748170018 -0.5147447825166236 0.07658758888508259 -0.10914356166034012 0.1138586997802246 -0.12302052329840216 -0.139659376050291 0.7511430153379698 -0.1647800589476335 -1.7338975279097129 -0.16227000464647492 -0.13021157900350236 1.2511341255538917 0.36069436427190454 -0.40128388209648846 0.3944857733750056 -0.03618189322427825 0.1268502300874134 0.028247902262374648 0.08173298243730487 0.017605251633152293 -0.1139440666712613 0.21274027028041687 -0.03145514288509615 -0.25204804249744556 -0.1497453112833522 0.03630861986507403 -0.18496737096005686 0.3103441414257502 0.03235972872509427 0.14173275169394467 0.06338220365483611 -0.3174717470078581 -0.17771965735532771 0.4080662566410331 0.08181664356201404 -0.35785301606855513 0.15911787428074695 -0.7972852280707505 -0.04526761069543975 -0.0025632081717890972 -0.12617337047337732 0.012061916710265927 -0.07785311929234603 -0.17415586483421192 0.17292040468900874 -0.39726980195420797 0.141833419170788 -0.5017686852042472 0.08806441884984986 -0.027355121879980078 -0.0028335030739901133 0.6537937025922894 -0.07122502782455926
9qh08,0.03379292343683736 -0.1886218542507049 0.35754733466009464 -0.016160518105213264 0.07192912796502254 0.0507221101203231 -0.06604905452126032 0.43766418990938466 -0.40989049968115654 0.057100398763171814 0.40896896026661106 0.06117430310238189 -0.015461022242364389 -0.027174628994195756 0.3583129260514361 -0.3554426302091996 0.03933807908842794 -0.0024242190043024846 -0.13404365013097405 0.17907625349677067 0.42389488381629603 0.11958330701168182 0.30755165195679135 0.19022142060313812 0.37674255145386415 -0.022404992143827403 -0.07226061967524144 -0.193634139043156 0.12574857577776677 -0.017304023567241818 -0.21661158986082502 0.2964677119328675 -0.06827425192415632 0.10427385766085111 -0.20889524115709895 0.14829233893924854 0.2517092496193361 0.09709938460581366 0.03198049716059835 0.40241144779861987 -0.29336236074889754 -0.4392734022538076 0.02560076928891088 -0.0486773025609476 0.1672628807928201 -0.018892090574669885 0.19971162486251476 -0.59846070035196 0.09376245502951462 -0.21952017574269525 0.10927917765209436 -0.20422191408758955 -0.09016426002086071 0.851114176838508 -0.1419650465682569 -1.7795716563189004 -0.12924228382884054 -0.1742803865787302 1.2847767355163526 0.39360733752783267 -0.3628243719673513 0.42085365609848224 -0.06234061041948468 0.21018050995587637 0.0830954542307286 0.08832493265445913 0.05093297930050685 -0.1290657707579047 0.2209434941715925 -0.06131294130364952 -0.2685613703942056 -0.17813723004597126 0.06257241362131136 -0.11787339598584962 0.3427106511846582 0.04770256069025226 0.1218118827616031 0.05336972905306708 -0.3689465869538583 -0.18131357096098458 0.4961468269699701 0.089846251991051 -0.37225235462898004 0.12732250546174365 -0.8324743060432447 -0.09121095384123996 0.04850335460258772 -0.1403437348109475 -0.0636186476010322 -0.0735769391175468 -0.14747924460294096 0.18655589357249147 -0.41555673083470396 0.10767492951339637 -0.49988882461457035 0.07294679781951914 0.06823913460087098 -0.015674159681080244 0.6290508131165317 -0.060857380441755156
9q5bw,-0.034728413701545474 -0.13898935476808408 0.3128234608502227 -0.004527497976664091 0.054167707985335746 0.04659479011978544 -0.08316277654327134 0.49174336867373575 -0.3667935280695984 0.021949682183482064 0.40931418334638303 0.08378587444412773 0.06593358687386114 -0.032560547359279816 0.37494699910875495 -0.3660709160149724 0.07251080416626854 -0.04244229252985467 -0.18680335651075722 0.1383517224130262 0.4584122682671597 0.1475480776555796 0.3149504400417312 0.16562868998390173 0.37525298656805084 0.04593354364318931 -0.14751068756250493 -0.2684668936574608 0.12221654711641232 -0.05578894552429778 -0.22799608332553686 0.26718916537950577 0.028108188580085368 0.10321218864652804 -0.14876232173031448 0.14581607836775998 0.20090281646534144 0.08163157502891571 0.05535858756466737 0.3634361526612387 -0.3251639250096648 -0.4935661894862996 0.05071826066311471 -0.0785978962740668 0.17069277613593273 -0.017942443104565976 0.22113001083825243 -0.5187745738628063 0.10728554589464771 -0.21130645834089062 0.10620852154081739 -0.18259357854869068 -0.05792247200695227 0.8484644741995948 -0.1268609849484619 -1.8784581202059034 -0.10559817135928591 -0.13507167983743135 1.3875215096498055 0.3953827241786395 -0.37271435730967334 0.46281977602049545 -0.040148143593085196 0.17076645378553276 0.11287552852038463 0.06701301926470465 0.07181184766333047 -0.12657133720343675 0.21123664973778433 -0.11389950924413653 -0.28637232604564244 -0.151208293661717 0.06816402634959694 -0.17944597409912838 0.29634995769333283 0.03878826132843222 0.1335661824454148 0.11364601642544282 -0.36412344466170066 -0.18698157097928583 0.4761829059188723 0.038220007944087316 -0.32073110909977753 0.16577819220068918 -0.8633072680456335 -0.08470827600085966 0.010012175417398787 -0.14698567606606489 -0.012304985087071839 -0.06738512528785527 -0.16765072524137173 0.19841534486898987 -0.3506223477557953 0.10582918557419922 -0.47710643407397046 0.10236513744297183 0.007893187779343051 -0.008274882799705223 0.7008625473804219 -0.02021659889660535
9q5bd,0.020035378446234205 -0.1925539285441225 0.38331803548137333 0.022534981556663433 0.10521684505068464 0.13192275280320437 -0.05040568048698016 0.5142321818543313 -0.5072282929129259 0.0880167783280923 0.4242062499895761 0.020266428509844732 -0.1085426649327395 -0.10157678333654906 0.29132741650282534 -0.32609699127459396 0.096689650542205 0.057653586068295265 -0.10256352886795257 0.13086855786933932 0.4898351364542558 0.21112858292258652 0.31148668531870993 0.1800807890537072 0.33753537021801094 -0.008834424816290244 -0.12084487718460594 -0.28750441397372717 0.04273036651891378 -0.04319220005525879 -0.25643278092676264 0.26429064803717794 -0.026328574018776252 0.18315599676317795 -0.07031303487440402 0.0937468011464547 0.19277040713144053 0.06590822920073515 0.06648864025287081 0.3094299586723504 -0.34014209623666797 -0.3980861820825886 -0.03579889368652007 -0.08432276047691563 0.23439297838987064 0.018551132199582272 0.2773393028097016 -0.5150362118915052 0.09526170820622264 -0.06068470179273615 0.059217303179608285 -0.2299836434653374 -0.10646763366490045 0.6613103268198679 -0.15014932298049147 -1.6155477901350528 -0.10516077481118967 -0.08894554605905787 1.1682366424091657 0.36539626880576936 -0.3845322633726625 0.44071337787352877 0.022862079812633693 0.13117703744710504 -0.03717978090433672 0.04265878961081409 0.06273682679080524 -0.1882047415828934 0.19480353998962985 -0.06604721700669487 -0.28556151698620275 -0.06447835232354347 0.03234214032501226 -0.1947672500501601 0.3106454608503902 0.06762194519206613 0.19088111118892448 0.0563441309365959 -0.22218894182661475 -0.15598093584794256 0.3474349127345933 0.02017422274582851 -0.31844737408019647 0.15625481228807375 -0.6839712490912749 -0.05095111599839383 -0.008842920085079906 -0.1734820689786254 0.026148792497576217 -0.10441560354147712 -0.20373544724312842 0.23720416003849007 -0.3045866191935908 0.09390784927968018 -0.4640736101880737 0.12497523994679087 0.04905609430320849 0.00702608163384283 0.6513214416277465 0.004579936533951738
9q5be,0.04049831726379793 -0.19178515411598587 0.3825740724870769 -0.030279509979836684 0.09427388632899085 0.13186616928682732 0.022498176608265093 0.4572251146623486 -0.47217246495898496 0.08253647817519316 0.43107834273608464 0.02803833676526917 -0.0805476736268595 -0.08364775892409265 0.3215177585335713 -0.34627189491458016 0.05962524036881364 0.08612744248302959 -0.15796585954216458 0.1428340479675598 0.4587816381697793 0.18885287364187012 0.2759773871674552 0.1867517568452764 0.3670707356949086 -0.03964625521427193 -0.06940573390733383 -0.2380057738432847 0.08845243055832924 -0.041082156805860005 -0.29487415744575945 0.29522419319291765 -0.05431890100994953 0.17940564796094186 -0.12453036176140857 0.13180551447368793 0.17218009870809836 0.0661085810899001 0.059426736489161816 0.38365407689921394 -0.2686348241521808 -0.4379706774128134 0.03668819127798304 -0.07579273437398248 0.2282377535340092 -0.024591645806166622 0.29567037465635365 -0.5519207371751432 0.06226392523767767 -0.12697152098655085 0.12120662594646295 -0.1742015403567023 -0.11628585608895006 0.7063069909793679 -0.14813066854787835 -1.7149394500057933 -0.1454508182003068 -0.09626630131673806 1.240778360423685 0.37731437239512405 -0.3866789625257082 0.3936153049285233 0.0073259938409471325 0.15121474931329607 -0.02380549209819357 0.07052973539726881 0.02333353953750983 -0.1259629677553503 0.23271246745102359 -0.015940406400005578 -0.24323577805033733 -0.1064884385509437 0.006291418625532229 -0.18294813539045812 0.3143504576817834 0.10817762621657936 0.15294489998528768 0.010439190026013706 -0.28414765577781753 -0.14645541204255547 0.44208939840482125 0.07387552401621228 -0.41959062878139874 0.18650018040050864 -0.7628497326846013 -0.04913842254988064 0.00040314504082572723 -0.13672547489840173 0.009657582669973803 -0.06870259397391941 -0.1821644171141791 0.215881316883163 -0.3659402230430428 0.09684374153339276 -0.526174222672634 0.12904844310367716 0.029835814304293454 -0.030792194855885247 0.6047485103035845 -0.03506177592401088
9q5bt,0.020067238144335614 -0.1959769566047676 0.3327894156164989 0.02459342922881026 0.06420262827415932 0.0687364333230264 -0.026457076083780364 0.4424135250424631 -0.4117512637899814 0.12332325356675215 0.4162883470714187 0.018441981349746606 -0.00681445602929721 -0.04392882608058342 0.36655369498892365 -0.3790225826685532 0.021029521400274018 0.022433709112150334 -0.13850442479144065 0.1504755015643184 0.4096360655490529 0.1139333746466687 0.3567720846810525 0.17851037748215373 0.37472685136450046 -0.04810630725032157 -0.0705340262845927 -0.21547639860418405 0.1232341075175332 0.005029451551311321 -0.1919759561711598 0.24514964779928702 -0.027738371107441324 0.15741875724421248 -0.2026848181115537 0.17763281380491544 0.16629640607723492 0.10566217382688102 0.06420903652152089 0.37659326975928936 -0.3022209004149741 -0.40611567728558934 -0.010389244849105412 -0.11638533855986852 0.15601008224097435 0.012020432172557261 0.23037785886451553 -0.5621458723434231 0.12048864398348312 -0.15578075398105254 0.11531314351763465 -0.17259933238403127 -0.10619163515747257 0.7828112661972653 -0.18506633338387848 -1.7770027844704 -0.12160238191798185 -0.14139737910637495 1.2492799730602324 0.3662197060148264 -0.3641604919547037 0.3584248915969922 -0.09516727444364322 0.23121806527461938 0.047179528704084046 0.0859484542822236 0.0299908291832451 -0.11265329607750409 0.2814894382672358 -0.05801565165992328 -0.2497003442414185 -0.16613660217874163 0.046053288800837845 -0.15639455991081364 0.3365055503125238 0.05701939633670546 0.15932374416031744 0.03532076001844727 -0.362086539148595 -0.16781464836619367 0.44573946278920507 0.10373098273940909 -0.35108206627270877 0.1533276951687314 -0.8236739559350548 -0.07411881230385535 0.04217417291383061 -0.20457611991295324 0.030661928548650564 -0.06101878137827059 -0.1579846597971691 0.19123809020692578 -0.4063932639455956 0.1294809839514978 -0.5125312137136779 0.06255105513016426 0.053261194270275626 -0.004151913908720649 0.5798580222625577 -0.08353637645389209
9q5bx,0.011742830308336092 -0.16981618092600165 0.3418881901088117 0.005033530940383594 0.057196440527574936 0.054901631706344926 -0.08628763903280144 0.4608495629536426 -0.42880731905889624 0.06745850708408671 0.3971520142263114 0.054899320935368014 0.006683326260944212 -0.03077975660877441 0.35109186256528185 -0.3604411833365785 0.05641736089429777 -0.0242491690107521 -0.1549983229023954 0.1265461061408812 0.4331110721469521 0.16751875247175776 0.3095802706648199 0.18641381266769003 0.3631270014690987 0.018093614870131284 -0.10639070484128307 -0.23720836605735024 0.10100036718167327 -0.028336747389022848 -0.2125060360031243 0.2737876317857768 -0.014321653348185262 0.11646784007512229 -0.1826783781510352 0.14235257696806794 0.24759671342214565 0.07750355429091187 0.04614322456809611 0.3745160085232854 -0.309000620417503 -0.44967419522618157 0.028456880922855893 -0.07715264239955685 0.17376290189354884 -0.03839042496012562 0.24799801132612476 -0.5370605762265493 0.09938917657546983 -0.19715396886869627 0.10172297601299768 -0.21860451221661642 -0.08108607260435335 0.8167956151859896 -0.13479466788473682 -1.7993210327234421 -0.0892736713865946 -0.15589294096009043 1.3128784613801447 0.3867555582785172 -0.3678200968016194 0.43829932312543385 -0.04758051235025971 0.17031664665373103 0.08566814215973956 0.08603643234146245 0.06308030672527734 -0.16049197703408105 0.2356473277255138 -0.08657879710967198 -0.2802010830408154 -0.15496833318348313 0.05421016694957789 -0.11972729882415384 0.32238774861608616 0.05396243959182549 0.13704599783167082 0.088120499862407 -0.33926291184921825 -0.17977615246254566 0.47584842979019915 0.05221817982471513 -0.3260708108315143 0.17464349779075802 -0.8328705659242476 -0.08141944714053406 0.023820876924787026 -0.1622231929780994 -0.028206018858863872 -0.05980585940140417 -0.15720116466824355 0.19437735932495614 -0.3652373605630961 0.06903939500493703 -0.4930693517529227 0.09499117223394853 0.05240203584962381 -0.012975273594568166 0.6453003022182037 -0.023085212261320025
9q5bf,0.03696986924148591 -0.18506515329313566 0.30875496501764815 -0.046833079866054665 0.07329311209913861 0.14147850604172196 -0.012434698781311974 0.4574030637270596 -0.43029356552769477 0.03322018525998794 0.419113621515812 0.0013093539097529577 -0.01907563805417309 -0.19274103084516947 0.3581498134431481 -0.3761773037089253 0.09868201166289194 0.0869797764586152 -0.20672896106068533 0.19227147194557268 0.4293811241243535 0.13360408184598768 0.2699732673244925 0.2439033584866423 0.2880812363615143 -0.0191599922705816 -0.08470241694992595 -0.29432302787030196 0.12116579428886039 -0.07620300201744094 -0.3124842358038554 0.29433143831880465 0.06046794954307643 0.18757705238607927 -0.19309673862870785 0.11159051346104475 0.11078909090230907 0.10205133754070023 0.07520389655193808 0.36022775355480097 -0.25482616248577333 -0.4942635147259346 0.046396023898777096 -0.13343515080183396 0.23229644641128996 -0.02262383669856187 0.21894537551661683 -0.5832475140894856 0.07267947130633226 -0.10937966583102757 0.12753608043405662 -0.20642066204953702 -0.1807889246435048 0.700943051896037 -0.12895092902033678 -1.7735445921087538 -0.23788617381441793 -0.12223558503453141 1.3586641108836615 0.403413630938405 -0.46651848965232684 0.4578002816014625 -0.055849976936104107 0.024595248207019197 0.0027092667273098617 0.02229468283023018 0.0386076628194639 -0.16405579585520955 0.18471079902730717 0.04841601624523397 -0.21518179734506684 -0.061256906363431014 -0.011161440297231293 -0.2472293860640006 0.28718322115751227 0.07491588464222829 0.17600455276163882 0.056043981439807024 -0.4007260793847034 -0.10008099987978826 0.41789621431797636 0.042166721396273546 -0.4640668064349195 0.21034197659847212 -0.8455864609569947 -0.0944780115600759 0.04602819462092132 -0.07333254943667179 -0.011416522315930645 -0.08072265657461501 -0.15320509199585233 0.08967761672587322 -0.3681747325836123 0.1462672725105113 -0.5240803726624296 0.15971081171254714 -0.045042466634662506 -0.015319524996801382 0.7041406094618452 -0.12563632495734747
9q5bz,0.003879413866425046 -0.1801009222260249 0.3383740813906415 -0.10742041946184563 0.045950902590816106 0.04496599280060587 -0.004258960047112215 0.37547131948064644 -0.48155965411528173 0.0063669207567204076 0.40987037602545184 -0.03456613812920924 0.008679720133225821 -0.01692788752736743 0.34209732559361217 -0.4007741642298883 0.05747717741906327 0.08089701090942156 -0.24277152999503548 0.21568891295964246 0.446017199333064 0.10778641885935715 0.331853031174935 0.12143635434440603 0.4117984982753972 0.009164805577431514 -0.05307891628876929 -0.16800176094697378 0.09902453188925808 -0.012589647003412547 -0.2492697594483727 0.33223455189302714 0.004248886263027403 0.1431079133665407 -0.2279915976169594 0.1837678324139301 0.2281995222725072 0.15443721296634563 0.013355120676845269 0.4344985216236118 -0.31547917579894585 -0.4095949638384054 0.0685040744020009 -0.05310613223529056 0.1589274728683392 -0.04337220488759897 0.17242187540107284 -0.6206601506936799 0.13644416296060694 -0.22626849360105974 0.17905197164954023 -0.20175197706798387 -0.12908948812909926 0.757171031898782 -0.11198666473123553 -1.870214727429928 -0.16714898755139462 -0.11708266730783376 1.269999022505021 0.4310153158934919 -0.3372460423401727 0.43009598064637217 -0.019861268770454056 0.1595609783416353 0.14737528897527638 0.04492482448746442 0.14664428966616563 -0.0036166075497863705 0.22882592570331828 0.045761748589523435 -0.28530525733079987 -0.12788692950587768 0.021056930183282547 -0.15903516657701283 0.35589122860836214 0.026644831915400076 0.1290869316673767 0.014389906784341279 -0.3436296047629782 -0.1736072470290443 0.42008677761908514 0.1479641746774495 -0.3379701239251059 0.07874657436452673 -0.8588260136990241 -0.06998783645170868 0.033711027157831315 -0.1704087381357372 -0.03602818044549546 -0.04822662025629202 -0.16311025881558686 0.14156434839933352 -0.3868977320269877 0.09231913436969684 -0.5219273590993687 0.10920365309042687 0.06532567874359983 0.02487053051061359 0.584027524317175 -0.08280227133001966
9qh0b,-0.014307720266802082 -0.15811759497130393 0.33264564808579017 -0.011516320780021088 0.045317533375150335 0.024442247175292853 -0.04812990821678862 0.3968723545631216 -0.37640788457296104 -0.038588109447601854 0.42901973441520547 0.0535028936189919 0.05178750481384568 -0.012904905915335925 0.35074151130775216 -0.361900941468733 0.07250423110432921 0.0156973109054137 -0.22591885596163355 0.19966097587350343 0.4400283212531231 0.06611316480749606 0.3180097276788938 0.16904477105501886 0.3652557862812985 0.005044156925764466 -0.09077885209979016 -0.17891672085846333 0.13924890555460853 -0.05643945672223713 -0.24507478665083782 0.3230479228445148 0.013936953164913465 0.09886540711665305 -0.20803723403590849 0.17840450631009191 0.18424212172827567 0.1156182132086605 0.03849698456283837 0.41203045744508493 -0.30494379583032016 -0.4247533979401285 0.042285612829943336 -0.0628185889803368 0.16733225060561258 -0.023563522671558142 0.15658215237078907 -0.5510260874449829 0.11880639335302665 -0.21200894991709474 0.15695122349191973 -0.15947258460666305 -0.11703942850066291 0.8174424496017944 -0.11426424433946604 -1.7848163703533324 -0.14901923273288656 -0.11611322579620247 1.264698511865224 0.38175281764631036 -0.32007214639627474 0.40860876014489655 -0.018039672072554816 0.2082817587799005 0.12385687322595432 0.07236227124202081 0.09262404642626622 -0.03538167807519376 0.24821974401794672 -0.008627945854602505 -0.27979341991254336 -0.16905683740091557 0.08188621276404237 -0.18786980884193888 0.33059341436227785 0.032093584951158376 0.13248958771779107 0.05733830746918539 -0.36133959644750135 -0.18804664548095176 0.4455669027653279 0.10376567211335208 -0.3262072881714124 0.1263685356247417 -0.8462950156491459 -0.061552995100734254 0.013322200665394216 -0.16992116355244435 -0.008292847896491358 -0.077716462552247 -0.15385306929436815 0.14042549607009477 -0.433481567526952 0.13246692359371673 -0.5058483549848451 0.0473445510320003 0.03708300691011365 -0.009653884748899133 0.6380228665333891 -0.06457923663739323
9q5bg,-0.023624343825811436 -0.15558132638691008 0.32081951306438483 -0.0627650960672936 0.029241586766000218 0.010880612820410394 -0.03632099700878758 0.35522380388668634 -0.42978813555177087 -0.010390161801041829 0.3987312081133287 -0.011621674632626281 0.036115589631981984 -0.03654025412243962 0.3886276278319667 -0.3805551618287709 0.0068691734434767355 0.047154630486887325 -0.2592694475435751 0.19190185883621483 0.4029589310362767 0.05778404190087085 0.33019349419392746 0.1176945226355571 0.39420449227890264 0.02372075407430645 -0.05377027809321723 -0.17724940142839593 0.10367217360978517 -0.03388515068856475 -0.27887201066061507 0.30498063716865365 -0.006794074793041913 0.1192217550492131 -0.25025658088878006 0.16226864392198212 0.20767017092552822 0.11796756136801861 -0.017624945885040568 0.40547928314707193 -0.3343036533858553 -0.39615019073547275 0.08461765383956167 -0.04178892567737176 0.14876813659190538 -0.046242827492346976 0.1916334383442223 -0.5564166443278058 0.11763319971824507 -0.2067786597113165 0.17317816149230145 -0.15372614481097682 -0.13187483289441637 0.7600240896090383 -0.10811616652978906 -1.7432429096721902 -0.1418979926422426 -0.12312969939653065 1.198175286795177 0.417125778133374 -0.31793137417672773 0.3884231886303408 -0.03171663077231106 0.1583459659711813 0.1131545431111422 0.07506286922321354 0.12445558499745789 -0.006054429864349237 0.26221536104535326 -0.004972744609369031 -0.2840936335422488 -0.13257327626709656 0.03494162620394719 -0.1470043864339579 0.3178188645890981 0.0627699830650534 0.14169509469688277 0.05254344812278179 -0.28420132290126776 -0.14022277832992922 0.42446370619823554 0.10480396944100498 -0.31855519841679913 0.12340026851797421 -0.8826595508869866 -0.046713220999719494 0.017358990168146907 -0.13593128580348166 -0.03920187854585951 -0.02643876478111906 -0.17837308290527018 0.16441087861143885 -0.4064962154783777 0.09975341009207779 -0.4821769905820016 0.11543705634950978 0.04446613052734056 0.012934852397389606 0.5763527290116798 -0.09899519318678529
9q5c5,0.008693314621574794 -0.12034617024612929 0.3342610418856983 0.01155752207061586 0.046154005425685596 0.02356005092814799 -0.046923963373014715 0.3546496446231152 -0.4281776993638768 0.01327335872095942 0.40431878851336556 -0.01608526022373573 0.023968567034981687 -0.01750657362907296 0.33663332026964293 -0.3631433301146294 0.045957085793555764 0.021242059848321598 -0.26642596663248297 0.15904490340278568 0.44284181820323926 0.06588855484188773 0.31708985673175616 0.12882202635628812 0.37106589416280267 -0.02891873639729181 -0.055403798747488374 -0.16969927896605766 0.11184990624650713 -0.06138212294437355 -0.30471627734206197 0.2929018954611981 0.013248569189909565 0.12140443566696213 -0.19979316723557353 0.17226868923613542 0.14982652157704698 0.09077910633320194 -0.024914969882884486 0.37672548460348687 -0.30530083419509485 -0.3924221313721894 0.034825506797192804 -0.08509862798037451 0.1795509849742073 -0.052265340354580136 0.2199691214097886 -0.505612104929485 0.13889122233043058 -0.1697168528363381 0.12786958544067883 -0.13396832843370463 -0.14551784147586697 0.755588772806775 -0.1672672984540297 -1.7541212498573309 -0.1465831168117066 -0.10197285797321824 1.1254644016939195 0.375464321252361 -0.331354689894468 0.37619315774516643 -0.04694740031720331 0.15838909334872667 0.10859974599164954 0.08086832092494713 0.08632081534636683 -0.010027463171596734 0.29532955780620984 -0.03197271475897544 -0.26560510654548913 -0.12669673106104257 0.0673624077356642 -0.1794312251983389 0.3185110927906557 0.030566546435127247 0.14817614078196148 0.026266357975517643 -0.2997186123643141 -0.1551405152917405 0.41891251772239074 0.070806095461593 -0.2826958970660803 0.15842419042896952 -0.8644657179054984 -0.036096448432489645 -0.051262044537460784 -0.19099133563231607 0.04793977055910919 -0.03804285806975185 -0.1854957000731533 0.13091249086335532 -0.3836941621714717 0.1464562007521892 -0.5149994409965255 0.053685397142186 0.0410104460295576 -0.020323642880055837 0.5853638623602991 -0.07282546293841564
9q5cj,-0.029369471034312523 -0.1680615284091715 0.29981905542479753 -0.0565491892273806 0.026349611100040644 0.03257592729306743 0.010865859603693443 0.35847715611724024 -0.47130307465487475 0.018802854565122505 0.42225561543228196 -0.018537857336200003 0.02972360425063405 -0.01950764774501265 0.3553375771487526 -0.40093129398810035 0.023974998809380803 0.06588087467570006 -0.2255498600323714 0.21989652520256223 0.41915362132260026 0.10274705105791433 0.36673520688555206 0.11986317477259813 0.3924855653720295 0.0039838821042613 -0.07043481891946629 -0.18378582242512456 0.1172493970434329 -0.007747147797376238 -0.2541010614795038 0.27223499056198774 0.003534362889704499 0.1444122015273882 -0.24243880498438175 0.19555849292724184 0.1706701440703028 0.16297040783590494 0.0036824039567081154 0.40963982022099066 -0.327744427017259 -0.3947424096326913 0.05788863122491312 -0.08079000326589607 0.16337643356050705 -0.005548017748627399 0.18904229245594678 -0.6073414693386768 0.1393178692996971 -0.22658550301831404 0.19183309701733758 -0.16372669001653803 -0.14147673600711444 0.7650832494305182 -0.14790153575743736 -1.8580345113380636 -0.15026397691763957 -0.11740710355501426 1.219844926251628 0.4146549298127055 -0.31432504728535743 0.37991672159863343 -0.07485874674782388 0.196333700909541 0.13171764356717006 0.07001062397262017 0.09216313349830967 -0.016180579743059382 0.2576311314083426 0.015008505819638642 -0.2738381176315025 -0.11526003248537389 0.02182942461567729 -0.15294489409462464 0.34802404736824333 0.04799901425724832 0.12811555897601679 0.01843756879854971 -0.3429901372813237 -0.13681842228679297 0.4264341303539644 0.10526633761488592 -0.3202253224947284 0.11061436324293762 -0.8980631769963303 -0.09092000128250738 0.025516642987087855 -0.2048888462462302 0.007585707591645192 -0.03706706291565814 -0.1427880839349833 0.16223714488128965 -0.38150651202714164 0.13801151970190034 -0.5056634453188661 0.11709622690414846 0.05180489710940062 0.006581170072224573 0.5657377111237276 -0.1401067490204759
9q5ch,-0.01083912522064531 -0.14756486099057786 0.3020530499224302 0.012774167196329908 0.04386352510000867 0.037954066397838625 -0.012892945986032533 0.4233423650064551 -0.35350217692837393 0.0012420266950352323 0.4413070285767621 0.08529851101948792 0.05699643769573806 -0.018825549377249458 0.3711320262968899 -0.35668065039477076 0.1033194444336903 0.005685536059300266 -0.2578940260989865 0.1768750397095245 0.48400829675234963 0.09270410288585886 0.2742921713851853 0.09308257411081186 0.350140933584684 -0.009555611257579276 -0.07167748219214802 -0.18971091818099964 0.1811362808789515 -0.06430251457625326 -0.2866223685329173 0.2738185894561514 0.03315249287867944 0.13474284047950566 -0.19457319134121742 0.2079818392158442 0.12409902416425979 0.07560317551400243 0.0346984412305833 0.382582112771159 -0.27850420969374645 -0.4778132949788077 0.035387730130165274 -0.0648798007911506 0.22946282585566158 -0.01783822380118573 0.18257560259941505 -0.527530087556459 0.08989425979761952 -0.18584178474124552 0.13865213784826272 -0.09116032233887228 -0.12777210573870185 0.7966305673097774 -0.20122286081430626 -1.8512101242624672 -0.13473467334529932 -0.14781483494220665 1.2484071215532495 0.3746673206132029 -0.36680929238591803 0.3894363874254747 -0.07406439507317945 0.1627317937282766 0.09646385514744134 0.10717081805741005 -0.002748347481315455 -0.06758739194025219 0.18752072604950826 -0.03961983270677896 -0.2843092183421448 -0.158206908362483 0.09115116798800164 -0.18943822746383507 0.3349346289948553 0.033534692392804544 0.1361795741442203 0.03517889656386242 -0.3634979782500074 -0.19098326917912817 0.4383804481833551 0.06582327877537983 -0.30267685261957716 0.14169606111022062 -0.8619211096399866 -0.11015407501491833 -0.016979692543962848 -0.16846406866695454 0.02960316183913346 -0.04870311453576914 -0.15499014923544235 0.14884488935327927 -0.35257213696804784 0.2113105420789045 -0.49492139522750817 0.07629997091018888 -0.0028582268714447603 -0.0064008840578150105 0.6553125217469058 -0.10741720818176508
9q5c1,0.03273870106084682 -0.0717926014313501 0.41907793669769056 0.06652253482836554 0.059832886817892346 0.08284146961941684 -0.052777499303385995 0.3700150727013253 -0.40342639961365206 0.02695965193246086 0.407126759573088 -0.01050117935664583 0.08995186829558674 -0.0754768776737616 0.3033198740891739 -0.36500386097746396 0.029695433816057753 0.03611483796059795 -0.2831084552529639 0.14108647897150373 0.5133970447663475 0.14898028494678167 0.32533307533477046 0.11253362314177356 0.4250887429312347 -0.033809689050207765 -0.07378611068678569 -0.21306083729513842 0.14284232163231156 -0.10746523531333946 -0.3150321880051722 0.26116606753422245 -0.06948562110946817 0.09305166063547868 -0.12757604048670032 0.20382110336647646 0.12473401008152099 0.12604362328651245 -0.05411414110486609 0.347171439387517 -0.3945355360032156 -0.45934745607337496 0.04447577110787766 -0.07261660206691788 0.1695766230200139 -0.003477374160121997 0.2646135852683789 -0.5905790574430673 0.08549888508108086 -0.24667690371226242 0.05896806530755125 -0.07965598069521397 -0.119450910644556 0.9709473988805398 -0.15477973467559425 -2.0167153527907073 -0.10996192307382151 -0.0484568643269587 1.3760777866141367 0.4499743299723226 -0.3514204178624382 0.4515019347861861 -0.029333674303230917 0.10524556128962789 0.2432487303308262 0.0961594966948156 0.0662140288970744 -0.03127009463612775 0.28835522885307285 -0.1447818070272429 -0.18321419853571513 -0.18304703568134795 0.023233894250831735 -0.20856628538182714 0.36153201430563714 0.06399584447485873 0.04265515765264258 -0.0141224561696072 -0.4084463297642921 -0.12052699465082829 0.5510614356827278 0.11747094873900939 -0.35272423632265054 0.2007929207414316 -1.0431585371963232 -0.02632054355472689 -0.07162560151042252 -0.22541885812024753 0.0059941852332771285 -0.1420586299348465 -0.13464123821133858 0.16847944337809315 -0.3689712943205362 0.1064601897885848 -0.5570954372713137 0.052071222960825704 -0.036318300683749645 -0.06948667762717362 0.6902056389050925 0.02078403617260292
9qh10,0.00654798904833904 -0.15865087198430694 0.3166011130034829 0.041456719281506335 0.06757784188240462 0.0711927485498398 -0.018114664055005444 0.4661762416796361 -0.32682034014330164 0.012193916918186172 0.43680697488433906 0.0948177022864039 0.0033091272993048086 -0.04301302011135812 0.3535261647893744 -0.3806679797423971 0.08358519675205725 0.004677910714904952 -0.2087461963505759 0.235035701845353 0.4045263272182607 0.10245621521058366 0.3236510197823525 0.2969190449634841 0.3232992987309515 -0.0044071213844897785 -0.08740658379749565 -0.21952502324670495 0.1365307360028113 -0.06939171491217336 -0.2617342605259016 0.31675511781491306 0.06804402145122783 0.0812293860760259 -0.20543951092051535 0.1332729862280156 0.19465763492126764 0.060126378671823924 0.12784282820874812 0.40353795897533895 -0.3012910927238849 -0.46706496325366365 0.01805156682468841 -0.09439136346100113 0.2367746447177544 -0.040479321298358774 0.18088856876457776 -0.6250562952572485 0.10514012584828676 -0.08951534237522729 0.12385127803709557 -0.14529854153036456 -0.10034730003801262 0.8196133952981328 -0.11493962788069617 -1.7834149705285725 -0.1613838705578875 -0.08327357609625832 1.2869030568067867 0.3754334745903687 -0.35618888887743566 0.44596643515616935 -0.08356194134438291 0.11394097149094948 0.03547424423508415 0.09576955806505504 0.06678822937176998 -0.10335534780059921 0.29574159377116455 -0.016815219729786137 -0.23513180040700657 -0.142666967229231 0.07532239335784155 -0.20029825086746858 0.38976408334094076 0.0884395807939997 0.14397898474619836 0.05991669213714936 -0.3628880025336407 -0.16078715889438422 0.43635922000255123 0.05449264869124627 -0.4344470880118069 0.1317364877979955 -0.8801609147362733 -0.09691351546772818 -0.028241723579370003 -0.13370535924739013 0.02904123596962441 -0.068208891270405 -0.1227516244275328 0.13860786423580826 -0.464940337628412 0.14108292709326098 -0.5578450146620505 0.07101220299300923 -0.008528952442047778 -0.03463289720071851 0.6883611309944533 -0.09586619329342289
9q5c4,0.045576364576793565 -0.15219549740348348 0.307342283444125 0.04743906830683461 0.06190981479190996 0.07490812097102564 -0.05429241255658099 0.4228938059534697 -0.3236352341763168 0.005974234354909675 0.4096899108286901 0.03741584813153456 0.04134176140249814 -0.09134650542851663 0.3328381740790049 -0.335496146146397 0.11888822474819535 0.028476149199981562 -0.24654160278567197 0.13471972979848787 0.4442548671282384 0.08376723772863925 0.27245650126945353 0.16694985609943885 0.34646074055676246 -0.0266258669828865 -0.05850710849271599 -0.18439993078861425 0.12241805800026948 -0.056556844130475 -0.3006308899004704 0.2888291248559707 0.047139522426630706 0.16852651067225005 -0.18887600764258686 0.18862703495140484 0.12273127556243238 0.03829498585706126 0.035703589587787334 0.384278847968046 -0.2561252599310569 -0.4322857978151512 0.0053500161528868195 -0.12384860501539022 0.22452654610026362 -0.046371974169820446 0.20659722607241673 -0.4593562462665979 0.08889227080242204 -0.10180030675363212 0.1232112001775212 -0.1057997834882435 -0.1514996704053915 0.7375428830611673 -0.17318419285143105 -1.725436180820986 -0.19339827183858266 -0.11915574638436184 1.177513047776087 0.3294805368529502 -0.3968428804973587 0.38276063839732843 -0.022904873127220744 0.09495008461255995 0.04343191507449337 0.06157841029717414 0.05217579385892555 -0.08902443758951555 0.20844724784645471 -0.022935068790943775 -0.2579311861372791 -0.1178284477368304 0.04772088154392694 -0.2193781283954752 0.31032116135988674 -0.006985380273675555 0.15906867774230227 0.0785358544425642 -0.3211054535902134 -0.1778962418247937 0.3915611528228479 0.06693872376061549 -0.323582952200744 0.17074918493484242 -0.8037956658261755 -0.03761579851497177 -0.05280486619606568 -0.14199724116143705 0.028738573158343987 -0.07479806917519176 -0.1854630135684624 0.11625503109125254 -0.4002194116739798 0.18353267418541727 -0.5096834249227605 0.06635413982793542 -0.010193965866501977 -0.015402357659335932 0.6585030545217331 -0.0792870998181577
9q5cn,-0.011324914644182013 -0.1327112195172568 0.3502597924229689 0.00594941022811761 0.05318804252222048 0.066466654695552 -0.04810282739559506 0.4453859393297544 -0.4008966515687336 0.0498493698890285 0.43448148315746005 0.01568805925630317 0.07638741549391093 -0.02233964228807459 0.35825577951295634 -0.39512677197010426 0.037862485149539875 -0.01986948141350554 -0.23562227326557073 0.15381731378825014 0.47588766951521694 0.13955758674624155 0.30510841348326717 0.15662948132182122 0.37127527366389623 -0.014683817308525365 -0.08044305679168644 -0.2702190650600446 0.1325393902575763 -0.08872703044854723 -0.24079441820409792 0.29566136511940516 0.0430952901399178 0.11586744415529693 -0.16749661255702755 0.15518492398952044 0.18212607452597485 0.07737382716289379 0.0437384271691429 0.40821875958509185 -0.3381040840737391 -0.5124526031604197 0.014171833496560754 -0.11844509907861399 0.20761169590312495 -0.03566887774650666 0.2213772449621708 -0.5788943782373274 0.1295441139967758 -0.21736566913633062 0.10435028070319007 -0.20193016707840838 -0.11641374990587176 0.8308823344346741 -0.10435942544294063 -1.919135748514458 -0.13669159583930657 -0.11214428999825145 1.390675838841772 0.4158758289917491 -0.39688218488743104 0.47230091051615763 -0.0686983488640414 0.12094523520943577 0.13143522668576474 0.08623520112386589 0.05947045291199305 -0.06418506049611278 0.2628994577435466 -0.026772992568679165 -0.2793869457612566 -0.13961627109520655 0.05492376698818397 -0.18203546737666626 0.33319206705392634 0.035710896528911774 0.1334970413946929 0.05990245983962212 -0.43277242124392834 -0.1629787835453331 0.49568070897279115 0.06833272767717652 -0.3154791190267235 0.18541462479125922 -0.9119754704265485 -0.042473936296386405 -0.015094562963059756 -0.1865532980331786 0.045358827672357084 -0.06509958894988141 -0.1364252808615 0.14730412120269817 -0.35875415981595565 0.08651930710889383 -0.5579242062758131 0.09015782910320211 -0.03651210532766862 -0.023080292269627958 0.7197772629687738 -0.04933126109319302
9q5c6,0.04919719002851428 -0.17455726593932203 0.23413984925513795 0.07677622382026124 0.057723998004208764 0.08217904599389926 0.02930200732991211 0.4316262573900629 -0.3368881695783786 -0.0032038247273329526 0.39602909093367716 0.0648810942093769 -0.012632887127462375 -0.09197399048090824 0.3217012243430281 -0.36610891469196943 0.11544456975217594 0.03397946531738855 -0.23849777928859092 0.17626987572248012 0.4464520032428205 0.1374194403900429 0.24818871656363262 0.18536024255482564 0.32918011159332156 0.0007579110212867606 -0.03463422678495654 -0.24296532814706823 0.13788545627719073 -0.0684034080392219 -0.30980065287792713 0.2533420433277052 0.04244193661302112 0.20257201217873982 -0.19320847756254547 0.20090824179695077 0.14629158280411705 0.02155335260336043 0.04905980908339661 0.35540194764994143 -0.19869135339909802 -0.45783478447392595 -0.049482544252978204 -0.12776577030642944 0.24906635060405008 -0.0430095684982449 0.15583498224895181 -0.496658658499127 0.0647654864217787 -0.028664017762729074 0.0911523947403837 -0.040521934395955944 -0.1977861797123078 0.7178289897008819 -0.1966856652865983 -1.7605436632933067 -0.1336058523312977 -0.0974844430320225 1.1005732372493071 0.34421365106475227 -0.4193468515957676 0.3424349421663757 -0.0847768680909906 -0.009098141403235529 0.06414107146871942 0.053453997647478206 0.039336402108407525 -0.1257673757951537 0.22450513590707374 0.0316778952588886 -0.19899305667154488 -0.04534523358748349 0.015600870600231107 -0.2006648490909712 0.36696910151284895 0.03291508901797757 0.13537511182476236 0.06778774874078927 -0.31511343914212814 -0.1275044387016575 0.4128232634267074 0.013501980098967734 -0.3724429741218558 0.1411604187543931 -0.835465666243041 -0.100501148135708 -0.08829702293337165 -0.1644312710034517 0.08429085012380037 -0.10624850151246891 -0.14520192469843454 0.10707542054061514 -0.38536556211775114 0.21493763086646545 -0.5360477691950464 0.10880180092877652 -0.05961745898072756 -0.06258677371516096 0.6724669854613081 -0.07681503406839475
9q5c3,0.04615698077879561 -0.19677620530661374 0.2771259078370095 0.017528951720644406 0.07791648630030867 0.12131046012794947 0.016172167591312382 0.44119127243809847 -0.3710051826555645 -0.005787637424912808 0.4272234466161768 0.045888905249451495 0.011215465291690782 -0.14291396043724422 0.36154074966232147 -0.3930718117012565 0.09824602563240534 0.05080802173086317 -0.20709161218412867 0.19711062412829766 0.44378076607319306 0.1324025033234575 0.24445219452322248 0.2075764056171303 0.327471458475009 0.004614204966132915 -0.06617420579457406 -0.2522830290596491 0.17081028545609583 -0.07705632374223591 -0.31650365038335404 0.2805921850806469 0.0327876870398281 0.1895995404181063 -0.22115933688814218 0.18134212349207918 0.15589116149910004 0.05721752614082721 0.05326803048423445 0.39229005437693837 -0.2345464636705515 -0.5299586957273917 0.01671716371044164 -0.1003911043661607 0.2554630838983804 -0.06415271304822412 0.19531815992877075 -0.5760575976437482 0.06086410619458392 -0.09133029562333138 0.1249309369928206 -0.09286502846970186 -0.1854827347927812 0.7815694410420757 -0.15996355763663783 -1.825091390653335 -0.18127890600142046 -0.12110907380222212 1.27118190273101 0.4142477107556076 -0.43023299516059044 0.4147944531307964 -0.05981916051475523 0.012063053241493446 0.06954751689089228 0.06475694897201946 0.021459446795779148 -0.158227904865557 0.1847761591489934 0.0177978884205532 -0.20986549023806503 -0.072385591007427 -0.0012314203992366604 -0.20012229269370374 0.3463589006167293 0.062293371240283946 0.09318089105384295 0.0759069950496627 -0.36470161439184895 -0.13468819755622088 0.4638002230167886 0.03126937867605396 -0.4421677912737265 0.16889622086825842 -0.8929549167615008 -0.0767880851284351 -0.011253255418479359 -0.13240137540659871 0.005658125844402838 -0.1334465091431211 -0.11042770675060981 0.12755404391624595 -0.40781679790096087 0.16351780049128667 -0.5314892254434951 0.14726914509911082 -0.05225218800257245 -0.04360344393220032 0.7113952755344682 -0.11313311731161171
9q5ck,-0.0025184556860503053 -0.12380072828205206 0.2771756411453106 0.05573983343938176 0.05208654764606839 0.039805802145566914 -0.01663573334699132 0.4094214593021755 -0.3880892742359115 0.02976620273721333 0.4432943421227663 0.07862887835629645 0.02800847152969785 -0.02371016039515944 0.3881477413115409 -0.3830873765251292 0.02725561272587526 -0.01196032847271568 -0.25306935347654413 0.19158698667284793 0.4728217458668098 0.08320630556977693 0.3065336529982448 0.11467219546909382 0.37043680419624847 -0.027181718155560617 -0.05460578414202961 -0.2051961170083934 0.1775865732749332 -0.09292723573290261 -0.29220003077525575 0.27117287630653675 0.03173652926023458 0.15116754840428268 -0.18794269882124987 0.1957790113868969 0.16721159376986186 0.05643028724944497 0.043232575458211776 0.3865218951251644 -0.28823424405011305 -0.5031305789932551 0.029105443591183073 -0.05888217578063424 0.23482575451426801 -0.020477539278245555 0.21788338291818146 -0.5884439086294091 0.10291516347107064 -0.15041628337014396 0.1015547483460336 -0.11948768740661932 -0.15507557738172684 0.83148740777817 -0.21241963077479645 -1.804683335120527 -0.12217568138508791 -0.11527395388606941 1.2453167148694313 0.3684415696744709 -0.3761402093523719 0.4046613632883734 -0.09978680923325613 0.13062474299909205 0.06689159477278095 0.10926962691082125 -0.012371431602181612 -0.09534263338135361 0.2538853704614372 -0.057943113111490516 -0.26022957074415637 -0.15570365980800763 0.0766822312363513 -0.1749025664938569 0.385325894986099 0.07757004877347674 0.1182831393767932 0.029120686640619908 -0.35764218336784 -0.13484517594621467 0.44694400727061695 0.05113122785785983 -0.31922263842336357 0.1875714981878825 -0.9180503542658897 -0.08492584944820616 -0.024730101997612962 -0.19231759022012018 0.0717798424111734 -0.05144919277500148 -0.16439457823279305 0.16262115621424886 -0.3638747625648689 0.16939380851033808 -0.5456466994504887 0.06444433275896508 -0.027615975278105345 -0.04595547211789052 0.6730766141958019 -0.08904426061678741
9q5cr,0.021210218534429656 -0.16709944282733807 0.3724085485854338 0.036074855415253175 0.08282637102460191 0.07653989124572204 -0.010303381292101562 0.47711476833027 -0.32268356798902265 0.09167756572281052 0.3952120583578759 0.009255111214249146 0.026775127072105557 -0.032822817021640825 0.3034569841076681 -0.4050327082925137 0.07773134523049412 0.03117343131953718 -0.2300576674431552 0.16031302252385224 0.43524390441051325 0.12759165993393026 0.29229937775463916 0.24103723999367885 0.34881137669000445 -0.020500859173073652 -0.017522510947032645 -0.25107113014514865 0.12661860422898227 -0.06332381738801754 -0.26690037920051174 0.3098832641634423 0.061262802309118916 0.15187079740438852 -0.17900867707007867 0.12434843657019339 0.19249154980351596 0.008445497908584332 0.12291755031802584 0.4062340912581546 -0.3117723037622424 -0.4909663075321915 -0.03148322169669736 -0.12737609021645707 0.2699405379555961 -0.08110170235633815 0.20194790352776126 -0.6002580547284648 0.10518605578501712 -0.11465268013126885 0.09302714626532213 -0.12696558685984893 -0.12832785250090548 0.7490491486961721 -0.1191554922256913 -1.8620517351989068 -0.1549978042458547 -0.06417176701448744 1.3038963249841862 0.39630566568835274 -0.4263321907903849 0.45508590167720886 -0.08498877412907556 0.04536768580717738 0.04412765050576218 0.04933547320162005 0.07299629668591368 -0.046317933408898185 0.2792273215932102 0.028989933093229663 -0.25726585037781496 -0.11587021049499809 -0.011051645003800617 -0.2073522416992653 0.3964865478068641 0.04766039388806104 0.17812887574981742 0.0607984627328151 -0.3779236096181574 -0.17335375724518476 0.41184428345504076 0.0847291908150942 -0.38440293472280246 0.14066562611449174 -0.876852061379294 -0.07317210816894236 -0.07631861068224569 -0.13006757632337662 0.07123497569204268 -0.048199351278314505 -0.118435662331735 0.11670367459165705 -0.3763173035194344 0.10767398909412339 -0.5735022639451818 0.10453041641877531 -0.025238848272669947 -0.00466190461810948 0.6822228281003601 -0.06234233390679039
9q5cw,-0.01368165144052683 -0.13511064277571078 0.326325743849144 0.04991338347398482 0.058291253054318766 0.06002795244811514 -0.05070557090271202 0.48416941947401904 -0.23513816289026213 -0.014968173910612604 0.3977729019448715 0.12310574577749138 0.12129054021932469 -0.011772721502924306 0.3795114516640423 -0.348509897470051 0.1275847413507836 -0.005301057120579865 -0.2667338042439403 0.16435356310248983 0.4160323491405122 0.035998842553124806 0.3184009414519672 0.21606102923936163 0.3365400785216334 -0.014653973235053186 -0.06987753520591447 -0.19867504440675474 0.1852039076396748 -0.060076361380455114 -0.26674426712147414 0.32735282095305857 0.08263726650598736 0.12545982729912847 -0.18896036104827474 0.15818653843365818 0.1186311746286281 0.0295452290510828 0.09151727573330465 0.3710134294590552 -0.28570559605795 -0.490740218260524 0.019039938674022754 -0.098945457225314 0.20467442628284716 -0.020466835808455045 0.15848386884822835 -0.46624492247494836 0.07106246884881884 -0.13049240552450034 0.12746608324370515 -0.07210467278196293 -0.09484164924302331 0.7825962489357571 -0.1347429100477758 -1.8201555619691974 -0.17902357593022095 -0.11582719235369729 1.258273574680309 0.34682107139040297 -0.3940216251145529 0.3942782183672284 -0.030960815581987884 0.15706295501900758 0.035553031108138504 0.05285577738178579 0.06010935882861858 -0.04077647393610864 0.19785777309057145 -0.03724537481248715 -0.30712803805790345 -0.189163898027837 0.08083289333681803 -0.25576177774306286 0.3410903595050217 0.002800855478573442 0.20161891155974565 0.132521049543602 -0.3591107729853538 -0.24989587319435544 0.41949559547131665 0.10945576959156554 -0.33065677267660876 0.14474705920585473 -0.8375716678908766 -0.0835345831916744 -0.05564937300546227 -0.12331877720167665 0.02939275849431138 -0.06183453416564549 -0.15861723119862095 0.14876715817763794 -0.43201923631305544 0.21997666656365514 -0.5004401266568609 0.047100824812010104 0.003578347039171015 0.034458883255079543 0.686567126402972 -0.07973499444653485
9q5cs,0.00042090446005339885 -0.11649533441052395 0.3029845628562759 0.07177922622901559 0.051337514403585034 0.05852592326167751 -0.012530828513869519 0.4304867034947601 -0.3623002110637562 0.0038938177078220236 0.44284693807355263 0.055356912332997915 0.05802345196989889 -0.02079211179811135 0.37490801503672194 -0.38218908152113223 0.036910302459487475 0.009191345826795984 -0.2646918964081792 0.18538763925340684 0.4289738711910351 0.07015940352839295 0.31097768502521067 0.1372271030173733 0.35276801530898166 -0.037630301976320696 -0.05108945468463905 -0.21919774966679023 0.1487693733344727 -0.10799272453358925 -0.27269958377717135 0.26616771559330693 0.04383732660753478 0.1268147064598515 -0.19453187392323212 0.1857851489439242 0.17557431110938684 0.06565025677092763 0.053945380636361694 0.3934370532111885 -0.300391687038715 -0.5051921819673291 0.030864254525058317 -0.08293353189825384 0.2196785490258698 -0.04215364943224548 0.19866717997420436 -0.5693784017487054 0.1125351371526115 -0.1604160020977537 0.11502312210555946 -0.11071329635648369 -0.13302946002487326 0.8159052001903936 -0.16502151998978862 -1.8356432515339236 -0.12957843578088488 -0.13079866398896436 1.2557717709939464 0.3711860748263558 -0.38300346337943425 0.4165365428388163 -0.06304386910016042 0.12500261690109563 0.06957009652276036 0.09621934549474102 0.029575338099919458 -0.07942449909945604 0.25469900787038985 -0.04573025838764553 -0.2667121618386871 -0.14091642410471908 0.05073385416441923 -0.1698760328297726 0.36426752657696 0.05140125844701611 0.1337651587012143 0.056375931969139266 -0.3422397810464048 -0.1483115510571402 0.44145592416966023 0.07274465339431922 -0.3099104698710948 0.18496843262823026 -0.9042385231644553 -0.08753003654339012 -0.025937761412947905 -0.15156179023650673 0.05690087119106562 -0.07959537645500792 -0.1680489351685134 0.15337050843940148 -0.39041934448800836 0.16711523774824338 -0.5239732281140805 0.06637495607037062 -0.007099609261178269 -0.022241266511312748 0.6854041738130141 -0.09106205940815483
9q5c9,0.0392971503683757 -0.178387704916481 0.3019304688448391 0.047422173066402944 0.060914111742313884 0.11479564881039814 0.012444395954813734 0.4538135593353567 -0.35796440046181865 -0.006383818801831892 0.4499626104296698 0.03705347040915686 0.023597668361934408 -0.10158196674840783 0.37023556082336784 -0.38582595903459344 0.11277306768279467 0.04913112838854382 -0.22164509279650302 0.19932239808803354 0.42531714929673475 0.11392373259628753 0.27277552136709426 0.21429879900825102 0.32876383971365436 0.007063908628418404 -0.04606812744941259 -0.25047190808929837 0.16739497295248273 -0.10229706607969638 -0.27737452056526424 0.29056269864864204 0.06252407122543582 0.17219004002034763 -0.21239269181886414 0.18001277376470032 0.1954380537260314 0.05101516876613986 0.09018867980411761 0.3993669746233243 -0.2402128459367881 -0.5071360470641257 0.024326413304697016 -0.09575654387840607 0.22871924082759046 -0.07099276563283037 0.18641647469038145 -0.5732270044316645 0.07408771329411812 -0.10478694480788835 0.12209426150411604 -0.06935052674925662 -0.140319118288495 0.7667293684927468 -0.12834846736805386 -1.8114316636012666 -0.17877175279718474 -0.11554138159053122 1.2517870452878632 0.399631110489179 -0.40738159351937875 0.4426499375857899 -0.05028750320260829 0.023057986223284567 0.052957765018233995 0.0784066365248789 0.054104133587891956 -0.11345949119725361 0.24302398327705663 0.005406668508540771 -0.21986457586542682 -0.08794349367482143 0.029067546830159746 -0.18867361002928573 0.3506203648726303 0.0420626671751413 0.11918476188384175 0.08069385979504982 -0.330411662983936 -0.15654081476744808 0.44453504560283796 0.0551737011524964 -0.40145055526691376 0.1747499038298117 -0.8753472777190549 -0.06892522046987931 -0.033206907945874234 -0.12477636896109966 0.035017031755507536 -0.14535775414546537 -0.12502381981628086 0.136463994084864 -0.42958127156658427 0.1591721645638874 -0.5162235091710761 0.09669110687879272 -0.035739247534323955 -0.03175934593037992 0.711352432167171 -0.09515341886118148
9q5ct,-0.0029894692788436377 -0.11210457661463348 0.3424281762868449 0.09198179523402618 0.05507269632753695 0.092648959720858 0.008470155225931694 0.44953489440618627 -0.3397056644587054 -0.0004294245133071765 0.4387480429184367 0.057974465635987134 0.08117628295101766 -0.0214672702893717 0.3747095490838617 -0.3755951550847846 0.0751534851937516 0.031150958974143113 -0.2426229010930348 0.20294060266256012 0.3957350184650107 0.06185892370754485 0.3095083173202295 0.20614276804642676 0.33338011896171155 -0.04998165141107394 -0.03468079019054572 -0.206764743911432 0.1619305622926342 -0.11940894117682589 -0.2503586791347567 0.2850236640337961 0.041734857660591894 0.119261565487595 -0.1809494002708144 0.16935649705965491 0.1545705656891047 0.03867339981067268 0.08853756507716305 0.40549895321537666 -0.2645953421833686 -0.5037939078771662 0.017799892894954834 -0.10440098578921024 0.21293314423708104 -0.051115277495869624 0.17389655298182508 -0.5437369734803212 0.09119718231911682 -0.10185322639190204 0.10118793008394279 -0.06708749989065775 -0.1224725023499238 0.7783132823336653 -0.1413569757600223 -1.7967180400900513 -0.14044687601983158 -0.11349797277890084 1.1986441554960634 0.3482682274532551 -0.40586169469121247 0.37832696366484525 -0.0422046236454784 0.12473103088422176 0.02966671156552303 0.08371216722581121 0.029363333007287204 -0.06484093777206958 0.23735992000998904 -0.012568583748041144 -0.26230973298985444 -0.13580703110988163 0.08058492933202295 -0.17744840973524045 0.3684503688654138 0.016223232623805876 0.14853604464007586 0.09013754502083669 -0.31350411281438856 -0.22072750670452027 0.4359922520775002 0.10443505699007213 -0.3246113365707537 0.17511924140368032 -0.8723604172970939 -0.08051116419156774 -0.05259751893776684 -0.1830664668937719 0.08801363842077571 -0.06320365450452475 -0.1561848453174659 0.17652061712689485 -0.4465808229325957 0.18093440886522488 -0.5214864990686532 0.02999893687360932 0.02623827314966948 0.0041804672839942485 0.6773660952431151 -0.1065184737678541
9qh18,0.010342506036036965 -0.18104914166957786 0.3387143860432882 0.04162827417542998 0.04778490944405511 0.06908668839816326 0.030588859757764136 0.5075096914912247 -0.4333391402204935 0.08666339059715378 0.4336488279229981 0.029965774555147043 0.016935656488294485 -0.08801811042560452 0.36473838698856065 -0.3589295273719791 0.11666636411767463 0.05912161921512204 -0.19955196823722807 0.1814231457525298 0.4292342634036476 0.08450035208640305 0.32833875678282276 0.14428636419176247 0.3460487542335572 -0.007340458174028057 -0.11511087362692482 -0.20902244033838305 0.04627673898583124 -0.09290722661733003 -0.30234517240613207 0.29203998105602463 0.01610130325526385 0.18442246520935643 -0.20510651381971853 0.2014588880996339 0.16511822459947972 0.1581713725996799 0.02987808995505577 0.30890874560229326 -0.325172191245244 -0.4871046572576864 -0.023689146206148877 -0.14421184777019946 0.13013165845032554 -0.042670354947226305 0.2647928668719356 -0.5661288509596556 0.03801718828278772 -0.17377143089145755 0.08842026597845659 -0.27974613105058943 -0.07708258047670113 0.7805058913648765 -0.13943326695416955 -1.7891512892667598 -0.1601144770126211 -0.11139128156105024 1.3447461363696929 0.3780037754478281 -0.3784528005591065 0.48748112950120986 -0.0237453476750268 0.14492238186458326 0.04898588736150182 0.09223439407183363 0.06365172794063732 -0.1269987917365659 0.3151095789486098 0.0191194310076805 -0.2655237545477188 -0.0917983289914538 0.09283296931239564 -0.16924710426220643 0.2459391795141135 0.03823934686834113 0.1441963503218679 0.05235484902213909 -0.3555846801217494 -0.1595537110218583 0.4656318416414489 0.09565022487281721 -0.3772865159481807 0.1899664862656526 -0.7954828683515364 -0.03417774094100265 -0.011939953727780093 -0.1536850741749708 0.03775082876877123 -0.05992924643641435 -0.18617768961744785 0.1391397537131657 -0.45819395652407535 0.13682640876872862 -0.5942866297444546 0.08361276572176389 0.02743328723046552 -0.02335873715500901 0.7494294191852897 -0.11818430944460617
9q5cd,0.053890494684191444 -0.16790142388716223 0.2612646176084706 0.12160966148795216 0.05019673776369894 0.10081519569839241 0.029944001279125873 0.4739402840819142 -0.32525283031225055 -0.0005516438687412813 0.4269768798043347 0.03505756293286743 -0.02372486185270007 -0.06494484511559687 0.2894045535074924 -0.36229628153993626 0.13094306442232728 0.053320227076144915 -0.23688980572998394 0.19834703081661578 0.43933504178558674 0.1368705225438161 0.27807527333702203 0.16809206693957948 0.3467032029017587 -0.006638656484348391 -0.03768291217596514 -0.23324303207282507 0.10354445545074477 -0.09816513832661332 -0.2540710114433284 0.21458408091184497 0.050709651236034055 0.1762303992331461 -0.16934370338115634 0.23200528350610358 0.22265824228698608 0.05295047358279797 0.07695241264070742 0.3676988655793679 -0.24932004118233467 -0.44494303850451045 -0.03500281497073966 -0.13743154105231062 0.2259671672789895 -0.0778958348360058 0.15865780342573507 -0.5368858642599078 0.09149705099981206 -0.06623166658028201 0.07106299911349896 -0.03446534472268101 -0.15149738673010146 0.748323591526289 -0.17702982836906392 -1.790934512476862 -0.08941988162188005 -0.08681178946635852 1.0959367441502759 0.3305985522006122 -0.3520565944817783 0.3829617134127995 -0.03852437632382057 0.02737066342030115 0.08731109962970943 0.05060695100201872 0.08541638965945508 -0.08896885108559774 0.2684558344129051 0.0034505444990824124 -0.20409606952882628 -0.04899515493217853 0.014897822808633334 -0.16998290866179142 0.3697612557049758 0.02835640505820133 0.13225394714068894 0.06417439392013759 -0.29531046904982466 -0.13355444914125797 0.4097085369204522 0.011133499337125683 -0.3076241472521416 0.12069737464355601 -0.8401691094859853 -0.08941741121039881 -0.11520838114690624 -0.1807553922531444 0.10890780613575185 -0.15328583204194976 -0.15137020935189882 0.13440636822713417 -0.39224525904306656 0.21965840974051778 -0.504078591850615 0.07779939105181136 -0.020664322026215286 -0.06857488814470195 0.671282999137445 -0.05024074699962198
9qh19,-0.0023741094846769367 -0.176371434431514 0.3168173891840274 0.03198693649419964 0.0517971096915883 0.05232902933240423 0.0036902469621220013 0.5065650016333288 -0.40822587613209155 0.07344617626202485 0.39139355428755623 0.04498692768881764 0.0008279441828473846 -0.09980724394849053 0.3576320658386715 -0.3467339193828844 0.12306080612373041 0.05943048866461733 -0.20024330935059467 0.18294336690144486 0.399565727912776 0.10261750978835943 0.32167656178704346 0.16214272029822072 0.31371668546350856 0.007269695757620234 -0.13248988206880802 -0.23387196872216276 0.04937873443218941 -0.08002128981032411 -0.3180787604588813 0.28078875043616297 0.010617808902621663 0.19891979604551552 -0.21626426524949874 0.18143689578166083 0.15775233134753316 0.16302184455242072 0.020927678215309126 0.29461901166136195 -0.32589614571006886 -0.48326578494262973 -0.02149844092184346 -0.1421495513133876 0.15771733534819113 -0.03819943100717291 0.2850068305441251 -0.5578378385807772 0.03709313104677963 -0.20443334413188255 0.11178384813879745 -0.28768297046933783 -0.08058017228613472 0.7702101052010575 -0.1283633763906377 -1.8262727556481186 -0.16396639402622012 -0.13178595341954097 1.357073720407264 0.38012173848178615 -0.3772551711376979 0.48780748283836006 -0.025813970431249326 0.13771982506384398 0.07273473662757783 0.06956110058093098 0.05324355964749484 -0.15228547842863122 0.3008775642841009 0.013539442547647952 -0.2740535870926451 -0.08806502893248475 0.05866427272359049 -0.18480640919720012 0.24113232219733263 0.046950020156028775 0.14786195956989182 0.09155499445638787 -0.3688976785123878 -0.14195423114424502 0.4763654419246354 0.0877422118617803 -0.3891407402189912 0.1953913607563347 -0.8056735460268081 -0.05873219674121445 0.0005901594583604715 -0.14879315223141734 0.016560072429400653 -0.061182310113677134 -0.1538493759279155 0.1058772805274321 -0.45226686686021056 0.13891088223207138 -0.5739134314625034 0.1133460979255508 0.04530206109191693 -0.024112661401280194 0.7595264692774338 -0.1426400227250628
9q59t,-0.0376974900128366 -0.2010325372832703 0.4647740107830588 0.11867486987099547 0.0707962344363196 -0.005791252972811214 -0.09558672358612018 0.6043501180642743 -0.3841970446393786 0.06456735275870651 0.3844102963548346 0.12561554996544486 0.009610399089753325 -0.1252710280459041 0.28754156012572185 -0.2717228543133696 0.14379044969226162 0.02753321616930767 -0.21712576141625609 0.14553801556198911 0.41799501093825564 0.21244997118720932 0.3004019210568284 0.17791096068514575 0.34298174706937257 0.11804829749218274 -0.06897710950827501 -0.20196819720138445 0.024035569850627395 -0.14330855612446536 -0.1784046091310113 0.12194813309072745 0.0347021640096635 0.1278121160473153 -0.11627820008799729 0.09531608797208915 0.17230417362194142 0.07527650404837875 0.18109042942725995 0.31969754015653906 -0.30399454390647473 -0.30195433036496294 -0.12576097796212293 -0.12258357599787756 0.22992119015019713 0.04603419664830506 0.2348530687376867 -0.4507095898171876 0.15505968536892661 -0.062463281172800464 -0.0526734835444936 -0.21119789131099734 -0.10946629650432793 0.6419213546512845 -0.06213362119797606 -1.682824056270165 -0.09998145475378126 -0.1729286625768921 1.2537252691566405 0.35038155435941365 -0.3319357708916354 0.4502619955003893 0.05457388597181788 0.04417098982394192 0.08380591280223985 0.07811537700388446 0.1578691652481905 -0.13373069313933936 0.2702255322492979 0.0201441667953207 -0.2647975981916378 -0.12741401852582626 0.01970222819009759 -0.17626397261068294 0.24373430925799072 -0.007701885493151494 0.23690922017609156 0.1824722575332483 -0.31460824716669256 -0.10722665366356889 0.365370676433915 0.1190724914140742 -0.33159099196727837 0.11408528058538729 -0.5091431023267867 -0.020468395450369603 0.017684523516845862 -0.2182900098065348 0.03761869974857848 -0.008069544665953202 -0.18958007490054993 0.10826736125225028 -0.41994430867584964 0.13298387488336783 -0.6221076292796761 0.10341837233152659 -0.038785805106475356 -0.012552110119101716 0.6835529273482075 -0.009775186744922698
9q5cx,-0.015281967195594328 -0.131137508218271 0.3334588770684421 0.036986339168678675 0.04216316651995381 0.03982382582028251 -0.021550423641314386 0.4792141307081727 -0.3933211898781046 0.038528321367035885 0.41258806874400644 0.05401937899689008 0.041747157193626566 -0.04546052037566269 0.35573933478829095 -0.3740679521444263 0.11821349527762458 0.011835507430011893 -0.2388837345261844 0.14966511897594598 0.45026938383989146 0.1058163366723805 0.3485754481837365 0.14747956646398486 0.36705193114774715 0.01782915235038753 -0.12168603390389697 -0.2170214201488962 0.09013228446276023 -0.07295357168156456 -0.2848661616763414 0.31342121603350015 0.06527749154401234 0.16042771507831977 -0.17303550361400286 0.16722787667216665 0.16645438460804793 0.10002184659080278 0.04992746334000874 0.34790113020406627 -0.3174544518736899 -0.4754544333188858 -0.016712818694518822 -0.121321690477873 0.1579604948977366 -0.018053333959837697 0.2448217430208475 -0.5213118305680878 0.08777403758355716 -0.1553559220263002 0.09861874984319334 -0.20180285225848538 -0.07875584590310518 0.7823907050473677 -0.13017372417109643 -1.8350168556661943 -0.14165580097705166 -0.10412116242570549 1.3144288717089105 0.3783003663586748 -0.38942603056988045 0.4742538039271137 -0.006454838426412364 0.09678729574793486 0.07429532572757824 0.07182117018683025 0.08347733444083552 -0.09020091520347076 0.2803996009521151 -0.027420929134134995 -0.2827520334188161 -0.12920178789253092 0.08205544757169618 -0.20047624936195954 0.2937640399694359 0.024569227073239816 0.1697114358763773 0.07901117756508932 -0.3497198889769153 -0.15689629176193404 0.44140740385242927 0.07878444161949666 -0.3204598646613381 0.16854074216056325 -0.8146809368219712 -0.04669788499924324 -0.029067066858368507 -0.16457622757085183 0.03450762527439959 -0.07228902501048132 -0.17958382519756202 0.1486505327778343 -0.4155616320994148 0.1346490325817373 -0.5444976892847868 0.08803978795472786 -0.010817018382736963 -0.013735304775863806 0.7291088337394726 -0.04653138023283164
9q5cv,0.007465794204778049 -0.12434074466123136 0.3483541670265687 0.03750381285651196 0.06020640731592953 0.07457026833004429 -0.04209912146216685 0.46174928417152705 -0.3317187059640919 0.0004989519195387757 0.3835969549468072 0.08107516010660086 0.10833793630770379 -0.02859806259716643 0.36736858235540937 -0.34347289418979426 0.09339323121437627 0.013575561429975094 -0.23365312569311839 0.19117490522825734 0.4058946121539763 0.07560586809730133 0.27902873197081585 0.15006827033589934 0.3546638801361701 -0.015279920247272065 -0.008472147482177778 -0.19121511067187436 0.16650518308482912 -0.1150384974714531 -0.23224451560476853 0.3088001713194422 0.0383712055256444 0.0840033204085102 -0.21550605139311385 0.1700797408044928 0.11588053947154031 0.053605755114295016 0.022953731522370666 0.40876755503108586 -0.27821866425261554 -0.5329189508283055 0.022110894271024396 -0.05968901415364879 0.2093066948700275 -0.042772240112847915 0.19429750867320691 -0.5467622216471553 0.05559966073960198 -0.175944159223899 0.07952684715506467 -0.11235665703278133 -0.09726395920345854 0.8512399486305092 -0.1514373365450977 -1.8603015213756726 -0.14828896482576498 -0.11113277590704197 1.287343801900366 0.3662427024421314 -0.3832005479756902 0.3747550121542189 -0.06857962479354374 0.152757429188604 0.1004244247492804 0.09267377553210777 0.01342787593508543 -0.07038311550958534 0.20605001620941132 -0.0415767215036838 -0.2686395346024524 -0.1964613160256709 0.07694183580980213 -0.15606802422968535 0.3395802062864509 0.05243634948463073 0.10808847115657633 0.08478761590513036 -0.3868190633390702 -0.20223956117560848 0.4932105437184116 0.06991889649117158 -0.33994551294605924 0.11793049356402598 -0.8907654139398539 -0.05317474987407594 -0.00766967746326259 -0.18292794576049068 0.059343790088386215 -0.053240281615812624 -0.12638464862989052 0.16352856432727644 -0.4568227518251365 0.17310181040876294 -0.5535443985930847 0.038608375680063214 0.0017570450562807143 -0.0001912097781839137 0.7006209263889231 -0.10795547365591414
9q5cz,-0.020831260093291722 -0.1845429360600448 0.3298805813062965 0.03216234817403903 0.09218892998628832 0.10547792954883281 0.02641134553180973 0.5001244678634728 -0.4079080468379725 -0.008284016611405426 0.40666052238877004 0.054327414656991375 0.024025571438055816 -0.11993426051534588 0.3856212198925308 -0.3988176342320663 0.17472663135569957 0.03363214188174094 -0.25734499052636395 0.1679411111714645 0.43603244817084874 0.12927803763484075 0.278276080052735 0.19448784788305748 0.2686157443914954 0.023152565335752964 -0.11013974306099684 -0.23758355242199714 0.0940791049640332 -0.12098637077684642 -0.2732617369831537 0.2893706055566469 0.07842874952642215 0.20333975635058793 -0.19986827881330785 0.14320228301256863 0.1728357514652982 0.10902398249051524 0.11246371122060848 0.3047291895316108 -0.26956547003423215 -0.5005809444605367 -0.0036445106399944477 -0.12864385070881215 0.23440282569911938 -0.05464147111191197 0.2566409843869277 -0.5717369936298332 0.0813118403233518 -0.11727683885238953 0.10717627849672264 -0.20794204091452345 -0.13900760790682026 0.7035520238394589 -0.10235901920744479 -1.847978820074706 -0.17273715692706346 -0.11557147818013185 1.354866448361584 0.3790195836342005 -0.4108820499996177 0.5004114873981192 0.021654333599501013 0.06477844433643988 0.039717491157553436 0.05809827410213342 0.07620112647974067 -0.11493248231837964 0.2643853116110639 0.005173230123453564 -0.25683056184251035 -0.07163308749996168 0.09907772501927017 -0.24665668620481282 0.2871387882318445 0.02161825057651824 0.15228357021071895 0.12156103715469178 -0.32739574116769904 -0.15232004661537954 0.45210395160798666 0.13042374117841882 -0.38554631417211854 0.22221782236839396 -0.7900096499082891 -0.037230227598558686 -0.020545529185172797 -0.15603219257988798 0.09256368753552639 -0.037256632722070984 -0.13423607612613964 0.07248606904142428 -0.47454938689486076 0.10810820201287775 -0.5708744396845971 0.12148421263719554 -0.05072723540967106 -0.002384554110680331 0.7185765095522533 -0.1402832207194094
9qh1b,-0.015967710337547455 -0.218671359599737 0.3275630232901399 0.028601907801463912 0.10286423304357765 0.14389437430976385 0.058777072681644775 0.510168436422998 -0.4496534723619299 0.019396069718010053 0.4050946703364784 0.04399860530405613 -0.035744989942399545 -0.16372366448967932 0.36227099932864765 -0.4072907268732163 0.228237483250467 0.08596741656428517 -0.24564695171169332 0.17567624278176694 0.40884749441475027 0.1642213971217331 0.2797280041027194 0.21773476742612208 0.23204292884750688 0.03611992085290465 -0.15043544392225852 -0.26189568400936447 0.04788856793539468 -0.11525364432610989 -0.2933505715511178 0.26295398113502944 0.0638091251930132 0.2781752578400983 -0.2093161667308563 0.15390849553671 0.17403909045627095 0.16325295554153574 0.11769058035982602 0.25381785022218306 -0.2388001487957079 -0.509391913303701 -0.020432514830580107 -0.15712630729659124 0.2598657337853007 -0.06457569104348118 0.27430806381081646 -0.6341424009932298 0.05801823836597266 -0.13207648538287792 0.11973490567659735 -0.25748012635808276 -0.16065366720928048 0.6641602287410585 -0.10312703259712144 -1.8665019732199626 -0.1891015489293049 -0.10418280459666802 1.387708564392631 0.3952331550666656 -0.4299845761727205 0.5352540128312753 0.014758210463177634 0.052257262633369994 0.02780853348724383 0.02762119693884176 0.07410377443811388 -0.1435269170733526 0.2856308783042464 0.04403835326798165 -0.24993619995611982 -0.019713158802814542 0.09399576449964227 -0.26024484672338255 0.25969890677203983 0.04320483913888571 0.13635853184423355 0.11483420188320548 -0.34238677979105403 -0.10659898382021532 0.4432500662767293 0.12733802168439923 -0.4247549165231988 0.24832389726737175 -0.762113249141867 -0.05010502185085176 -0.008586963650558109 -0.14002653578018634 0.11582359984397536 -0.04406678862108207 -0.09941512648739625 0.008808563203692069 -0.4708194968672565 0.0934703504589681 -0.5903121248505403 0.1493265136857893 -0.06290257247753038 -0.024489779442687418 0.7117019918635962 -0.20512252722057575
9q5cu,0.028059398609873745 -0.1261040659390077 0.31473437036578783 0.08547416297537587 0.05950685938891961 0.07520695677857578 -0.03616604717341841 0.4464405306361961 -0.3855317628810565 0.015435561984168055 0.4176521363720155 0.01745780308429383 0.025808946897807668 -0.05277556235665891 0.32503111130938006 -0.3690327898466458 0.08229542815643622 0.03595984272061562 -0.2267382909208486 0.1785320934259725 0.4517569028378331 0.07580542567252187 0.30477665870470455 0.14354357459070582 0.35867358926557336 -0.016123910260271 -0.05272399457736246 -0.19618465416247455 0.08881326882187064 -0.10447988922316001 -0.25439160259201266 0.27000158348040115 0.021136823965581444 0.13234517427993966 -0.16841630498402532 0.20741099416431918 0.17300880801592786 0.05077384093523281 0.04667875927226359 0.36885300668501225 -0.2766067476136323 -0.4223102542060497 -0.01425858465976111 -0.10560186553298549 0.20337991129365868 -0.055302296795292354 0.18777206562105356 -0.5160861249271118 0.1245338073053661 -0.11933503091173095 0.08057159029620907 -0.13096647195767488 -0.1376514417344676 0.7863174539138827 -0.17365959879153584 -1.7892886772787553 -0.1189705578699883 -0.06158333286944817 1.1662669387735842 0.3273207996854394 -0.36694461119784283 0.4008896923227983 -0.038946922405288464 0.11634070506467736 0.09261849316526981 0.05586296291328449 0.07371841459079267 -0.07885441098546817 0.2684418553763142 -0.039524236231843056 -0.27025875108724395 -0.13303466533809086 0.03322835811788462 -0.16195424737328556 0.34114164717118073 0.018950224615452038 0.15562859741326343 0.03367473815603694 -0.30351580892428814 -0.18885303571805487 0.390785764414797 0.03466515979431834 -0.27731538114009896 0.14766385311679506 -0.84739641581125 -0.06410874356502184 -0.0720653443630268 -0.20769602262687534 0.0923214619547323 -0.05851242117567911 -0.1850828361249103 0.14802659177397937 -0.3904716108778585 0.18425879897661868 -0.5364549453860515 0.028549921496029 0.03841630973218643 -0.006013683294676023 0.6652161138633751 -0.05032375285023344
9q5cb,0.035196520549308795 -0.19926319067755266 0.25717456207189704 0.01574908254710067 0.0789570511235022 0.14047769754311892 0.028640735652325132 0.45357730140018276 -0.40559374089747036 -0.010103938821932468 0.4332496087401296 0.03398435953284311 0.006508542786289391 -0.14470412257076304 0.34975975458280334 -0.41224396667678037 0.08543555897071387 0.056417906617559695 -0.20571100029261954 0.21717420229082215 0.445200091852959 0.1470653467951971 0.24125468959527516 0.2003548612701654 0.3404897009623426 0.020521798765804563 -0.04972315807197365 -0.2714780582987076 0.14710315670225227 -0.09272979458869078 -0.31268991280024727 0.2718468736060109 0.026173558849987063 0.17850392716271088 -0.22565686532342116 0.18708086794886772 0.17206192168935425 0.07068877364059832 0.05575302380448304 0.375701687443672 -0.23808201847304622 -0.5206895290542327 0.02251053534464931 -0.1142752866248291 0.2725607534263188 -0.07464426761411577 0.17847303173496065 -0.604070142753295 0.06356003096047816 -0.1132385742636856 0.11828834657833966 -0.09424006423252483 -0.19206899846323452 0.7864429975335919 -0.15396910474283393 -1.863625843366962 -0.18706005444161444 -0.1030992984821799 1.3004541047334346 0.41906815480666487 -0.42565429902685226 0.43124990172326455 -0.07978342489829918 -0.011375480836975833 0.08835597761120112 0.06517088145716811 0.027084447555537218 -0.17807767097601926 0.20457067537315113 0.026595834517126597 -0.20084392493572142 -0.06200610517238894 -0.015341431763979807 -0.18929643699502507 0.3320872877182803 0.06597306267387174 0.08052661429015075 0.05823378860959221 -0.3784364783756817 -0.1260402765185117 0.4591879182707411 0.010874563682827411 -0.4438719596856927 0.17419697226779843 -0.8900719646704432 -0.09433462169306246 -0.009356040771235212 -0.14914437479404055 0.020914791741865446 -0.12558237074235581 -0.09306899705931461 0.1217278850535994 -0.3932684641286034 0.1673673150815677 -0.546278543552102 0.15699736718694188 -0.06758782564052626 -0.05784808559464626 0.7215405381525233 -0.12518127345330912
9q5cg,0.045482417569397075 -0.13964154293891312 0.3047450011071392 0.1126757784282375 0.06783991378469169 0.09100476808784701 -0.012704035762765596 0.4748107974289907 -0.3751994502604348 0.025160525832391804 0.4354520759803379 0.012652727769984407 -0.04112801631788055 -0.039524037159984836 0.26732265095305185 -0.35904103742705795 0.12031307846601333 0.045720352237604685 -0.2231533815357817 0.18126028385891987 0.4655085263246886 0.0820248903632493 0.3127286212891217 0.1785088491678823 0.3517045505751776 0.008401652824367832 -0.04643015389945478 -0.21778176973995378 0.07259944207654732 -0.10079496915420226 -0.2575893815996962 0.24632442219387424 0.06433505003900468 0.16489585672130577 -0.1391421478298981 0.2093017121923952 0.19732967240313906 0.0516393497419645 0.07006685993080276 0.3480069998763094 -0.2703289653439457 -0.4011284347891756 -0.03577214950737523 -0.1278492172437511 0.20978559780747305 -0.07167215180478954 0.1876626229318057 -0.48923996227782574 0.13642186639026466 -0.05461981469728117 0.06311330224395989 -0.0814632532521398 -0.14348446944274468 0.7335844813690507 -0.18554602559922648 -1.740975461366233 -0.12333476566553793 -0.028584265575687703 1.0957636452645219 0.320370613919371 -0.3657583683305104 0.40902306015703394 -0.03392834765084365 0.06077362295786658 0.06836329384801816 0.048323505284955735 0.12142996088061322 -0.0645641592812097 0.3246157825663274 -0.03151141226281069 -0.2418381858897543 -0.08083753352457165 0.04807130770958979 -0.2082101109266685 0.3462850300527739 0.018331755687762925 0.15739767504411034 0.03833495709030938 -0.2521016441408694 -0.15116393729051547 0.35848558115206525 0.01249314583778683 -0.2815649258222101 0.1529529849117739 -0.8281913531097752 -0.04573083719501655 -0.1351844817370193 -0.19435762050692457 0.14522368310860376 -0.09547634753370449 -0.2040884861376121 0.12935450702488815 -0.39590712968066955 0.1819625168747269 -0.533180609565241 0.03314887421040486 0.010931997009038635 -0.03847145949340992 0.6328759390177335 -0.0002606188146031601
9q5f5,0.04319438971199588 -0.16807576739223407 0.33160268898351236 0.07788138563012202 0.06503059614564227 0.061158740389016746 -0.0637506921071844 0.423417689329672 -0.3147489392602377 0.020583891850031007 0.4157804261148287 0.03870611257416035 0.04097645930224873 -0.06504514191566294 0.33362057318147537 -0.3445372162802169 0.10231972308606346 0.012178049982465078 -0.19302220568556688 0.1738869128986236 0.47635437077296217 0.08296483356282548 0.2939359155415983 0.09791721061625674 0.3641797753145551 -0.0011443683559255538 -0.04784043612047886 -0.1787173025518875 0.12599251652425253 -0.09466911801975421 -0.2476437625179409 0.2716928653918456 0.04837126233236891 0.1199596647443478 -0.1675517484910542 0.23367240909698034 0.1806717172365614 0.023419772757263358 0.03057065670859947 0.4016533852628257 -0.28945464084322614 -0.41362115691102835 -0.02241278312356148 -0.08385105446685083 0.20813541031031907 -0.07241468162814493 0.16820398968199723 -0.5287698613596846 0.09319635089214183 -0.14446135031141816 0.07917780482121461 -0.11621843186581073 -0.16060733673933292 0.8085984375210113 -0.155419670769641 -1.8162126719192222 -0.15776208848706755 -0.07257824745125398 1.2177331007473036 0.32232991107173603 -0.34375112563382554 0.42568268283996574 -0.06916572418849883 0.10488086027953972 0.0988441514205761 0.0524787773184207 0.06711824574375705 -0.1248200012900813 0.24431290865612543 -0.07398791703717196 -0.2684588618222149 -0.1647811840786033 0.031475952374627386 -0.16710079747938228 0.32083266267684984 0.01676242443364587 0.13187173886927883 0.050499902435746695 -0.3463837324054844 -0.1700224180327058 0.4261639399330336 0.036314688907079694 -0.29591066309888897 0.11882421614456207 -0.8909953027182473 -0.03984215541886423 -0.06261935268278235 -0.17691618560805514 0.04733114318859205 -0.07022024742366365 -0.1717059507318045 0.1547262751971257 -0.41595195159422604 0.18276961216079582 -0.5416310611402199 0.0432988900069911 0.004516527589425525 -0.021133867563452632 0.6947319282671056 -0.03351259784750752
9q5fj,-0.013871359630013952 -0.151042902418377 0.2855670474892271 0.029744636273310296 0.08468690655576391 0.06774902021577194 -0.06583026395115632 0.5031508179789047 -0.24684350112906775 -0.014173398087740624 0.3740168823806221 0.11910467794701175 0.09936592629052916 -0.06113150988397896 0.3575462857743062 -0.32281361775987416 0.10567929464831514 0.019922446237328004 -0.24109219120675374 0.18946549864517093 0.42274551941174004 0.054353923692038265 0.28561509744821056 0.1981385612440051 0.33317692129466864 0.004352876585419201 -0.016197017459436955 -0.2207572634347206 0.1548141676421126 -0.05228540737842718 -0.2903042349236734 0.3028753235755241 0.038758348768720155 0.12259645273509542 -0.2098475153458342 0.19312778105577338 0.09331005680110588 0.06275764467038969 0.07923394069457007 0.3735332819850911 -0.27816892790135356 -0.4924598045259584 0.021851295938965738 -0.0940378757230334 0.21228385097326877 -0.022084470024100793 0.1580963095236962 -0.48089499422230114 0.03393928314164713 -0.20156227229742518 0.09531768466463252 -0.10146810092022794 -0.13509504870620684 0.8192321538589921 -0.14741390472813767 -1.8629242136157451 -0.18492646877360736 -0.12192264597805046 1.3142071963783342 0.360767278235851 -0.36860901767185106 0.36749994256643703 -0.04375249080690061 0.17148330851141774 0.11802594494701518 0.03765025949199481 0.04840126546252436 -0.07545788737060996 0.16765538921271475 -0.03525198264491547 -0.26101347762801547 -0.16491688754298373 0.017235441984609634 -0.2520601023398817 0.30424043776285026 0.031226419004820295 0.15973283291599583 0.1357273228161879 -0.4278453568693453 -0.21995544929978045 0.47531562317957343 0.0816225989142015 -0.3527088410320911 0.10975632932936753 -0.8491008725431527 -0.10638791511562161 -0.015719056762695034 -0.1358289886443547 -0.02230519550959236 -0.051963412004469835 -0.14014696869850599 0.1258483624299189 -0.42061222086225686 0.23734519491190811 -0.5131036154129404 0.08371056857850852 -0.0037781017454783716 0.006594494914224034 0.690922175911084 -0.11777329274159766
9q5dp,0.031050182422100517 -0.19706495905545293 0.24773523956947932 -0.0012518339992043585 0.08453987303889851 0.14595422840072053 0.047098196535020335 0.4442327867679034 -0.39734286347459696 0.004881385212007786 0.4208220245236196 0.04311567548196049 0.015407466975019872 -0.15660607452113218 0.3648060283344403 -0.4049780975597134 0.10167015273515682 0.061860977788832296 -0.20509104862834115 0.23992947528438668 0.4388358399524619 0.17666500335965832 0.2287933573313998 0.22224447685619853 0.31477497042431196 -0.006116935257043618 -0.046914252248264045 -0.2995987038303277 0.17953225326753142 -0.08204651334857928 -0.33251889659830414 0.2743083000926423 0.023050227608717812 0.1950180130135683 -0.2445591870061694 0.17791164219854697 0.15569083682861024 0.09588289016691819 0.05773696744324334 0.3782695117603449 -0.21930283774654344 -0.5653753912689371 0.04075410521297073 -0.11861770755673957 0.29069782535506683 -0.06772654367237173 0.17575472247441776 -0.6187504943584589 0.03439129166526814 -0.11883400101159203 0.12464742733800467 -0.09308616158640057 -0.1980391275439925 0.7980740247817095 -0.15238213967054728 -1.9183015648635675 -0.19433153584452087 -0.12253261020433437 1.3536249315316247 0.4536511378941528 -0.4393038923391584 0.4275991165539643 -0.09832135665171945 -0.014276193314643497 0.08747003387580969 0.061434468990128575 -0.005152078864605424 -0.1834237610719638 0.18113608545372226 0.05196071980092286 -0.18170586100009695 -0.04811860026815554 -0.039956476151087134 -0.19401679881588557 0.34504673232063454 0.08249030591995114 0.05999756226694031 0.06637119160281006 -0.4388135497719059 -0.11320284776184537 0.4909458209764774 0.014591158704597769 -0.48867514064427314 0.16303977035908662 -0.9358552820607782 -0.12712956475572793 0.01781293039440788 -0.12969388834535744 -0.006735126255120532 -0.1309302617115656 -0.05011406668417813 0.11893947636508653 -0.3770229040813139 0.1888243507576371 -0.5416503325377107 0.18939539568419217 -0.08430496109094814 -0.07095439027076014 0.7398305031495389 -0.15615442131748294
9q5fh,0.037128463805850644 -0.16234095819870986 0.3794426529422535 0.01007658061964846 0.08614988549581876 0.09333542820085551 -0.052848050579373106 0.48864411182554746 -0.3450048624389363 0.016644300285659858 0.3586388745617501 0.06706869591835557 0.08370979278156296 -0.05389796109149466 0.32264395316117805 -0.3399456006400971 0.1545537154958787 0.02380673718110468 -0.22854329222918582 0.18582789612719702 0.43783700405044274 0.10409081821964768 0.249985146116288 0.1450592120894453 0.3838867280275084 0.027547430530555563 -0.002352099620427718 -0.20916653283796358 0.12365424328468237 -0.12250952671723601 -0.21796790709186162 0.3182625101957 0.07780082888360025 0.11229360584070663 -0.22308609657138034 0.1567066526479076 0.12606983484873216 0.05705217862236462 0.049969136573663434 0.40973944538557133 -0.26997115797293586 -0.5246776176969392 -0.008805397781046217 -0.07859771590175248 0.22562860294774273 -0.06368890326803676 0.21690064086331368 -0.5743419412596802 0.032357886591358645 -0.1612182534235012 0.050071070295023536 -0.12592934910945686 -0.09061194246930218 0.8344614194466767 -0.16583939579620158 -1.8733108231276323 -0.152453593133635 -0.08698438944126781 1.3100037305173093 0.370351140546092 -0.38189913470049014 0.40968951215613353 -0.0752177076681261 0.12023628212926597 0.11088903243394169 0.0902461368282702 0.039245962478052586 -0.07354263548677355 0.204621489071356 -0.0103093942849737 -0.25387160154748745 -0.17850094408114092 0.06951800745825891 -0.14031428539996252 0.333251581837418 0.06232026737693399 0.08083549028977231 0.05955998385724472 -0.3884468725567912 -0.18472468122811672 0.485103938541713 0.06894061984685798 -0.358406308527351 0.09143499229269736 -0.86474213181923 -0.015861012135889457 -0.020091593517315445 -0.18826349720343244 0.07519500150517386 -0.08649786800539928 -0.11464165463837786 0.1290623647931634 -0.4736564223506738 0.14270667491684141 -0.5974918410913037 0.04543896420702217 -0.032176407897954375 -0.013718674798717181 0.6918099203460559 -0.10693622045058372
9q5f4,0.010197410549747281 -0.15486432688925197 0.3037601715396456 0.09123956027085149 0.07993298009416894 0.023976448117697762 -0.10208486346390504 0.4362605558770413 -0.30351278940619647 -0.03306349147405022 0.4139617633309394 0.05848525778173834 0.0474562274293745 -0.06520854720355788 0.3428862786474899 -0.34149942710435616 0.1034427841658182 0.016311097990872582 -0.19444471453249706 0.1700030148816082 0.4314816448793304 0.06826765518720912 0.2675970938601808 0.10332192752612143 0.35826030231163425 0.03770501634398681 -0.015105028131257952 -0.15271102801662736 0.08089163886798612 -0.11241167124461574 -0.22066283084342203 0.26899304343240926 0.06396004786462181 0.11946839916238484 -0.16037995303867475 0.22004645585325863 0.19898933785638834 0.059169652505700665 0.045592233558553734 0.3383689830247203 -0.28279996004544644 -0.37182536719905335 -0.022565406091348873 -0.08506815721323956 0.18885316529562968 -0.056573718315762765 0.1900216422239299 -0.4746389568875881 0.1021846246459123 -0.09385899722370267 0.04392648995010527 -0.16096260765390216 -0.14447306654150474 0.7839868843234146 -0.11710242810896167 -1.7001215690089695 -0.14840036641836413 -0.05625477537525328 1.176116033729622 0.276245616332492 -0.27473242635937084 0.43391078616576567 -0.01445241800753534 0.10996352782713294 0.12910938432265287 0.0314991327183488 0.08384852789822837 -0.0661699394045375 0.24499295016937683 -0.058815751287209776 -0.2551101662404964 -0.1617392992133587 0.017144456678501042 -0.17118346963972875 0.3084373507419764 0.04642821392811428 0.14771867559550875 0.07519022820175773 -0.33240822361722794 -0.17019702787537053 0.374988992773752 0.07592402122933722 -0.2852043397120335 0.10633961282958093 -0.7653458565365859 0.00956204521144187 -0.04537785086790186 -0.17901396920175489 0.06374563029063947 -0.05472156742914283 -0.15793505291573504 0.1307767587768429 -0.4156042994413006 0.1742778180252193 -0.5300617521787979 0.056864140925482975 -0.002332232415617835 -0.020613547084431243 0.6568542806486098 -0.03403593737168488
9q5f6,0.03071684693493701 -0.17087288394682604 0.38588208931004836 -0.000706957382346765 0.12177091228910818 0.0869662014533202 -0.034741828368879 0.45457322937092254 -0.3579095578565294 0.09050780549033965 0.4286781540528581 -0.02818938812055139 0.07296536236109856 -0.11478538911900275 0.41457251305791065 -0.388136049324707 0.06480932402326901 0.04915750558986356 -0.1784391663848961 0.1972261764162586 0.4779040014119503 0.08917135140460992 0.31963008396263914 0.17171589785989907 0.3440031602738413 -0.028725203883963494 -0.05443236170234679 -0.17951581765976216 0.15310674670604305 -0.09754269239745952 -0.2431772331875784 0.2913626896055252 0.022778812795040414 0.1394374928973457 -0.1895055266502552 0.22597641366393742 0.18398382718665138 0.07207043569368626 0.058758359360580936 0.38800666957195806 -0.29316947772332 -0.4795499648463667 0.02920676189038647 -0.06597328124065169 0.15170689963874004 -0.051541400634183526 0.1883179802231248 -0.6225046168110004 0.13927643969802195 -0.2092251622148587 0.07108995776010836 -0.191583570877905 -0.12628243675662928 0.8980260309353649 -0.13053710201938248 -1.9308441032899828 -0.1452441939347702 -0.1239818635924159 1.3973091874441552 0.4537516737805704 -0.3248660668461166 0.4691576874078037 -0.07361257014954968 0.21919199872810077 0.16345842609579966 0.06072289356935544 0.08864049989773397 -0.08279870965655828 0.24529468488705541 -0.06762266086285007 -0.2928929701354644 -0.17724508379686504 0.059157829190453266 -0.1649628591183467 0.34272270137389976 0.09396667981906871 0.14487454429402644 -0.0025800277173346833 -0.40689112885597967 -0.13229906343506742 0.44980506492938965 0.13491613488527682 -0.390071133720245 0.13372617980538704 -0.9355675271031012 -0.05884426752140066 0.01023370072944589 -0.13419446493968423 0.011984622340255024 -0.07140334390841102 -0.08716834510215493 0.12686849649061172 -0.4489796199318195 0.11358994563478762 -0.5760079824399802 0.08840973791840846 0.0004741978416011573 0.04409647771007896 0.7404539074878151 -0.11221112114629561
9q5fm,-0.005372197208894179 -0.18136136900388122 0.3256941302069861 0.007936543246699502 0.10233982337431834 0.04731525336833942 -0.07916077621003378 0.4884231738495385 -0.2283676038901256 0.027939056043060177 0.35017992837998174 0.07775365376168561 0.10832142802230053 -0.09364483235454316 0.39106501887418266 -0.32324397876647726 0.13149438115259748 0.06433969614984542 -0.22901851818294208 0.14711076153227942 0.42904683703989555 0.05818569766104219 0.2826582574872212 0.2082759656138053 0.30801422474188767 0.02356354141042482 -0.08515777693638459 -0.1841215324658524 0.14346355311281278 -0.027564449315026558 -0.2387160501912163 0.2791520096936311 0.027014279541605686 0.13853360959871838 -0.21126149255662388 0.2177021993383888 0.1466031598415172 0.049377854113043254 0.10222981489914439 0.3846600419964892 -0.2790737251727352 -0.4282397510728659 0.03301072265829439 -0.0792191016516338 0.1472761172769223 -0.031064570943658176 0.17521944201944073 -0.4596247279201208 0.062459227082522474 -0.24580036608838207 0.12830609692815217 -0.16121961805024956 -0.10597157811779451 0.8083557823692924 -0.11904178335120276 -1.832296760554846 -0.12034470631568311 -0.14871588733086855 1.355310165908917 0.37490241564596966 -0.34304750849805077 0.3857341133698952 -0.011758341047626434 0.2337316113845643 0.13242617652232527 0.023455667084641002 0.06849083219856233 -0.07139538446216553 0.17133933117935063 -0.08334778081790893 -0.3277146936418358 -0.19918689935563635 0.026803786672199226 -0.2266608622083127 0.28830950783918874 0.024829763204967156 0.19132401577123048 0.12524996671962507 -0.4112051078979699 -0.21331124831140752 0.42191388640123034 0.13672863647850586 -0.33505295826014486 0.11849323997333407 -0.8147357328592411 -0.1230032075694592 0.013555278164721582 -0.11563014664111546 -0.05109752223356134 -0.022427992665711514 -0.13015121834351895 0.09678219828759832 -0.4245522338016569 0.21043570767861314 -0.48129498034334633 0.06899121990818678 0.08502907695842174 0.08938523870154151 0.7073788837616813 -0.08781268895103017
9q5f2,0.02531832716377773 -0.18729992292089573 0.3081113495917344 -0.014416907599993964 0.07472066994758435 0.10170947636580774 -0.0043646926297449175 0.45006041424118604 -0.34872177886957656 0.006432912405675731 0.3893862711005659 0.03587554635706349 0.02897242103347757 -0.14627962284918794 0.3852728969687422 -0.35985530916724856 0.1072404828238973 0.06538251675346698 -0.20563421104775065 0.1557440450162746 0.428693639542593 0.08863852486127669 0.28617117747244747 0.18594008535464357 0.35022554589512334 0.019243934805575784 -0.08736803385901405 -0.22108093112871652 0.12481306602287638 -0.055996321087516475 -0.2715247316038899 0.3190300090391336 0.08709415780430835 0.17413154192715186 -0.1670132717934538 0.16406049514871496 0.1587437787047353 0.07436428880422279 0.09516238274133348 0.39727366911698675 -0.2503981664840583 -0.4530860342060553 0.0029776739258115486 -0.0894453328160676 0.18112524935909585 -0.05326497733272154 0.212648223111967 -0.5260541361051735 0.08094369252995767 -0.0860502977382069 0.11753631001472457 -0.2026875947696611 -0.125283325104526 0.7100335180550336 -0.10852365652574844 -1.7027637303378897 -0.1806006836226734 -0.09876843252003252 1.262800760774151 0.35006775236204923 -0.34687423198873685 0.4247709809315526 -0.0031394344719003027 0.12618033516399418 0.05451363029209106 0.03520992796916872 0.0908943059528493 -0.07522900788594905 0.16430398317127728 -0.0063044850593287965 -0.27083443590478257 -0.0995746920671759 0.025854241782115758 -0.24226811071922189 0.302099941531081 0.057097220605942 0.11840951144656162 0.09394280996214853 -0.3260463218457608 -0.15311310155793528 0.4010423871656821 0.10103741222998314 -0.39888652729643737 0.14702108990069876 -0.7940099290773542 -0.0369020559755908 -0.016678327834227968 -0.13225837258584355 -0.002222236567231011 -0.05263628471034484 -0.1576006111913568 0.1152115522629875 -0.3844694175160237 0.1651007186461953 -0.5320998613120463 0.12697677820954642 0.013660097769233485 0.02060833698159293 0.6732043952111214 -0.08225905528046688
9qh42,0.014356457119332184 -0.15010483700916405 0.3487196410177657 0.054211481967518536 0.06855703537959922 0.11853709866394208 0.00795616013025741 0.4775208813297524 -0.38434585874734445 0.10040121376406354 0.32659451516461313 0.02060713353167693 0.015690052978193134 -0.11346605742600534 0.30604237186603483 -0.3686522525797084 0.056595355066238855 0.07027533073056559 -0.1533158349226677 0.1388367330824889 0.350441271975758 0.13473706773493832 0.25296994811325413 0.1961102030712867 0.33546022742404813 0.02056866923678369 -0.03265783967871583 -0.14112584486686988 0.06797178560344767 -0.09095151579714601 -0.23708874525167511 0.19323503567713687 -0.02384884596252278 0.14092941479534515 -0.19429649514784397 0.20950313124808798 0.17532678407777094 0.09704510794283931 0.09739377832442717 0.3828219262643277 -0.28615090988581393 -0.39458633261746945 -0.02869889447500328 -0.12021760332452995 0.19618943801082286 -0.02368926272544353 0.20005053503770598 -0.5232700576238432 0.07619157090083759 -0.17765811848048332 0.09362508892739084 -0.19909310331497979 -0.13144879897924994 0.7458389089389417 -0.09619937783914982 -1.7331671127579718 -0.11831460046931716 -0.16095565474712087 1.305857451144939 0.33633848115058523 -0.3682436003340327 0.40809814606158684 -0.020348333266385205 0.14194991362229534 0.052596252061122395 0.045036582554545505 0.03481140105894054 -0.09845226230725533 0.24478879544048804 -0.008415721295369234 -0.2705018563197425 -0.1611998243538466 0.02890964926532221 -0.20189270329750278 0.26874612441673523 0.05097272245099086 0.15902265669315152 0.1265430311983902 -0.3975629930821437 -0.16111621744209223 0.40334140624687986 0.10711615953605064 -0.36805551076840237 0.17922889300499747 -0.8194786428952493 -0.05849380557686497 0.04274944890279218 -0.21392190226516414 -0.014279919328788259 -0.026834126360248452 -0.12590477157799068 0.1838387205259011 -0.4359881543602983 0.16596455540461086 -0.5336122375777698 0.05608400174313325 0.03974203015338501 0.07444743086896558 0.6383848897541106 -0.06753606760253163
9q5dm,0.021673366426625543 -0.19172385929010566 0.3613452129093603 0.07056336587163496 0.09934768056728552 0.0962593091727944 -0.006875080445846596 0.5404136127720863 -0.3435636629835386 0.06747485928479802 0.35905978874527117 0.05019722489089205 0.032310226041688955 -0.14515546672963375 0.3891390286377612 -0.2907970700803503 0.0994903448067691 0.06544157985709753 -0.18210783191684418 0.16445069499091425 0.4382234306663904 0.14320434960729816 0.300878893359131 0.2164030925056859 0.3525989557589928 0.03255130285040052 -0.08277369999810381 -0.23447530574499353 0.1126796086550093 -0.05568658300057647 -0.24236048367279583 0.20914404227188077 0.04204207285197249 0.1692093198504226 -0.13951400016443394 0.21990650608334908 0.15923420667216523 0.06766452213808836 0.1311513750243425 0.37314679702915454 -0.2657644877694035 -0.3943036981553223 -0.008043147170759603 -0.10379729231141005 0.1481270843679402 -0.02857199807206083 0.19902669938604686 -0.5178571717201631 0.09096422293505221 -0.13837696986213155 0.06625849348072044 -0.19067681794181793 -0.10378416557327387 0.7267569220368484 -0.1036107331404426 -1.7283311233915672 -0.09716270142622654 -0.11349347732536817 1.2853977573925093 0.4014302229888037 -0.31471282877290524 0.4103673893202735 -0.024235538917309212 0.1349626697772425 0.08692163041804823 0.02898023568842565 0.11717752310601207 -0.11607558400963018 0.21784551794317464 -0.05776753666825068 -0.2841410356263182 -0.12373965161003954 0.06362506509325952 -0.22683011162623515 0.3259839655959263 0.04170909371727539 0.16420847741824218 0.07372458379530741 -0.3588661690830145 -0.11643511857522217 0.38677952812066113 0.14567456080987518 -0.38089865991345256 0.09820231100346576 -0.7478356404191582 -0.06701181371049587 -0.0033910564008255875 -0.14980962578839788 0.011425963949281233 -0.011506390046570137 -0.15092282868080578 0.08186727248957955 -0.3835371939085069 0.16675515185780704 -0.5738498479149388 0.12348809253165609 0.043441229213405534 0.021025012918453705 0.6452793624431136 -0.08105943935702256
9q5dq,0.030769741271960045 -0.19347752537904256 0.40377755075773325 0.016220649872562512 0.12245924209964724 0.13008424259457424 0.053827679113764015 0.4723283086430943 -0.42209647265028877 0.14810970337224957 0.38091187663069653 -0.02975625691812432 0.038435547994149 -0.16548328233359508 0.41985681400778563 -0.3493010736724313 0.02880484870459703 0.06927941143463906 -0.10722576917046109 0.18290446388507134 0.45820434967541873 0.17878224965541958 0.3180319600920928 0.20533137372660573 0.3578165189284745 0.013346640847056697 -0.08125058783584119 -0.24827318501545373 0.11405340337633128 -0.0606966085713173 -0.2338710906140179 0.25043638544479147 0.027538111827826017 0.17529932753811742 -0.19489786033998815 0.22720135266199312 0.195768462786097 0.11506373531733279 0.11576588642393174 0.4068592733708876 -0.2769378980735999 -0.4288261788944051 0.045029269909531336 -0.10804067994267852 0.10813352625315217 -0.08947744112536947 0.23302669866788256 -0.6503192397011145 0.09080963383934934 -0.17780603261747793 0.08642948728624295 -0.21426872091149288 -0.09400643382892669 0.7890145114449134 -0.08605803593917771 -1.7351134492243394 -0.07879540973762601 -0.09153999343159894 1.369741891401071 0.4612942257322565 -0.3373430664663309 0.41912248931431706 -0.06829951788261836 0.16016390991149002 0.06375497151762055 0.05394985974241481 0.058907373970350264 -0.10861712866925456 0.22253079951925978 -0.04443402527279188 -0.2836456979724232 -0.13247235120329837 0.04796410843231516 -0.18690424743262884 0.3632912532513992 0.12197512638419464 0.10851886520646412 -0.016786382196865283 -0.3884727676085027 -0.10992645918074911 0.4202704123422104 0.15682465899552775 -0.42585590241156085 0.12159826564787003 -0.8625091809575591 -0.08104554539162694 0.04328998088041893 -0.1305861905474884 -0.030068180580792907 -0.036698522710264934 -0.10337978097104641 0.16182064269807178 -0.3702481999346179 0.0724907693463643 -0.5842832351757465 0.15393476618381777 0.09915874854290975 0.035181174113650134 0.6875698135400137 -0.12310876714299886
